~o
<STREAMINFO> 1 19<VECSIZE> 19
<NULLD><USER><DIAGC>
 ~h "proto"
<BEGINHMM>
<NUMSTATES> 6
<STATE> 2
<NUMMIXES> 35
<MIXTURE> 1 0.0420845
<MEAN> 19
-14.5387 14.7066 12.3893 -7.7863 16.1177 -11.4779 6.97819 -2.43687 7.91537 -2.01793 7.27045 1.25318 6.04837 -2.96866 2.77623 -2.30136 1.99295 -1.80299 0.126742 
<VARIANCE> 19
14.4372 11.0335 9.80296 18.9897 17.5428 19.0474 21.4062 19.7018 17.2271 16.7889 16.7544 14.4273 11.1187 12.9846 10.7095 7.53566 4.57061 3.56954 1.71873 
<GCONST> 7.386e+1
<MIXTURE> 2 0.0264246
<MEAN> 19
1.54185 -1.84377 6.55495 -5.37969 2.21887 -14.8785 15.7846 6.59639 7.5658 -4.16272 -3.41691 -3.63222 1.52119 -7.74114 0.217438 0.0202727 -0.298198 -1.31802 0.22825 
<VARIANCE> 19
4.13982 22.9778 16.375 28.666 22.2709 26.4944 19.008 34.3563 34.6052 20.2579 25.5431 27.3155 21.98 19.145 17.2933 10.3649 7.21286 4.16331 2.1429 
<GCONST> 7.386e+1
<MIXTURE> 3 0.0299447
<MEAN> 19
2.70888 2.75791 4.83175 -3.03314 5.31301 -13.6396 -0.672424 -5.01326 17.5948 5.32135 0.817155 -4.99671 2.34427 -2.74618 -2.03772 -4.12468 0.119013 -0.414768 0.179549 
<VARIANCE> 19
7.72598 15.5884 16.7071 27.5972 22.5632 26.9516 28.182 27.2885 28.0574 20.7546 24.4778 22.6164 19.1432 20.2016 12.2441 7.74127 5.69411 3.36069 2.40105 
<GCONST> 7.386e+1
<MIXTURE> 4 0.0290713
<MEAN> 19
-4.55967 0.585365 11.9091 0.971546 10.0871 -4.46658 2.12366 -3.4986 12.0061 -0.429988 6.12981 -1.3639 4.7141 -1.05054 1.98681 -1.3159 0.872026 -0.635628 0.307239 
<VARIANCE> 19
7.55996 16.6199 16.4661 23.9353 20.2366 24.407 21.3137 22.124 21.3145 20.0598 18.8305 17.3094 15.7373 13.9935 10.874 6.90489 5.11363 2.8622 1.76543 
<GCONST> 7.386e+1
<MIXTURE> 5 0.0180391
<MEAN> 19
3.20332 -4.04532 -3.2481 -13.4942 14.2997 -4.70799 5.39525 3.49922 8.36109 -0.374417 -1.42692 -13.1942 1.6245 1.10811 0.950708 -1.18053 -0.314184 -1.6195 1.00292 
<VARIANCE> 19
9.77152 14.3037 14.5549 28.563 24.0847 33.2032 32.3538 30.2975 20.8416 21.0375 32.1484 17.5213 34.0078 19.664 13.824 6.7203 6.92534 4.04825 5.14556 
<GCONST> 7.386e+1
<MIXTURE> 6 0.0267723
<MEAN> 19
1.81881 0.823278 6.87537 -3.21673 1.75363 -10.1874 7.36726 4.77296 16.3768 -2.98827 1.20752 -1.10573 2.37482 -3.90193 -0.964546 -2.09626 0.586373 -1.04298 -0.163733 
<VARIANCE> 19
7.99326 32.2029 20.0872 18.7369 24.376 24.1502 25.3888 21.0472 25.5619 34.4063 26.2031 19.7709 21.9557 21.1676 16.2001 9.09776 5.92453 3.25636 1.7988 
<GCONST> 7.386e+1
<MIXTURE> 7 0.0422541
<MEAN> 19
-4.04656 1.65201 13.6491 3.76593 7.40696 -7.13907 5.2739 0.614191 9.48345 -5.42068 5.55849 2.50974 5.00886 -2.62906 1.72655 -0.349668 1.22002 -0.721776 0.302065 
<VARIANCE> 19
5.40107 12.9892 9.50063 16.0449 13.796 19.0417 21.0082 19.8133 19.3483 15.223 17.066 18.6216 13.3442 13.1975 9.79185 7.23815 4.01244 3.01275 1.77043 
<GCONST> 7.386e+1
<MIXTURE> 8 0.0234293
<MEAN> 19
2.86602 -2.15166 0.798698 -8.08177 7.62877 -10.8587 7.02885 2.87156 17.1911 0.436486 -6.93781 -8.43489 2.08994 -5.01194 -0.476054 -1.9959 0.591384 -0.0665929 0.16691 
<VARIANCE> 19
6.47036 20.2637 13.5306 24.951 23.0675 32.4467 27.7394 34.0069 29.8969 29.462 24.3769 23.5788 20.0602 20.2565 15.224 9.1819 6.62447 3.97029 2.74314 
<GCONST> 7.386e+1
<MIXTURE> 9 0.0128813
<MEAN> 19
-0.495676 5.23577 11.5776 -10.4541 -2.83301 -14.2844 11.9814 -8.03416 1.77695 -0.859516 -0.133041 -6.75955 4.5938 -4.57629 1.4636 -0.0461151 1.08792 0.380375 1.13538 
<VARIANCE> 19
8.32374 13.7706 21.222 33.4324 19.1932 30.627 43.4761 33.2771 27.0685 30.018 28.9872 21.1864 29.003 26.431 20.4698 15.979 11.9046 6.657 4.21862 
<GCONST> 7.386e+1
<MIXTURE> 10 0.0290743
<MEAN> 19
1.89527 10.0574 12.2066 -0.981804 3.8031 -6.3364 8.5541 -13.0157 2.52744 2.01648 0.169931 -3.66708 3.22224 -3.63826 -2.65548 -1.42874 0.415241 -2.27618 -0.251458 
<VARIANCE> 19
4.42413 6.9871 11.1474 11.6418 18.5489 16.1333 18.1166 17.1647 19.2701 18.04 21.2284 19.7793 13.917 10.2917 9.70433 6.92218 5.5894 3.53219 2.04358 
<GCONST> 7.386e+1
<MIXTURE> 11 0.0194531
<MEAN> 19
7.59968 -2.84354 -5.53494 -4.08442 12.4014 -14.3024 -1.98323 5.29929 14.1449 -1.86349 1.02774 -2.09053 -1.78322 -5.59215 0.418563 -1.0495 -0.353438 -1.15025 0.251136 
<VARIANCE> 19
4.46336 11.3708 19.5688 25.5321 22.1192 34.835 37.8576 30.8618 32.3763 26.5653 24.8192 23.1285 25.0411 17.0611 14.7707 11.1216 6.86426 3.50451 1.92625 
<GCONST> 7.386e+1
<MIXTURE> 12 0.0363514
<MEAN> 19
5.77537 9.61888 3.06438 -12.9489 -1.73279 -6.85501 8.24852 0.422167 8.99536 0.115373 3.56752 -3.29001 1.43643 -3.02543 -0.974788 -2.04533 -0.588784 -0.859703 -0.101117 
<VARIANCE> 19
4.55515 9.05678 11.0562 21.0238 14.8775 18.3625 18.8351 27.634 22.9298 21.7228 17.7512 18.6407 12.7995 10.5009 9.92377 7.01722 5.62001 3.00581 1.85132 
<GCONST> 7.386e+1
<MIXTURE> 13 0.0808556
<MEAN> 19
-1.46885 8.24551 9.74769 0.873552 9.08025 -2.181 7.51855 -3.04335 6.86001 -0.184075 6.3929 0.376377 4.80176 0.159027 1.83198 0.0983239 1.1167 -0.34293 -0.10801 
<VARIANCE> 19
2.73767 4.44155 4.85264 7.32925 8.35316 9.15157 11.6537 13.1695 11.641 12.4396 11.0357 10.6971 9.21765 8.84217 6.89497 4.65191 3.27998 2.41662 1.52604 
<GCONST> 7.386e+1
<MIXTURE> 14 0.0201914
<MEAN> 19
-2.23602 8.12341 21.3348 -5.26549 -0.934893 -9.5166 7.67109 -16.4614 2.14664 0.449455 -4.15164 -4.6712 3.43159 -5.68633 1.0558 -3.04084 0.817349 -0.708463 -0.846296 
<VARIANCE> 19
5.09696 8.06622 16.1966 22.6093 16.6635 23.1611 21.035 21.5339 20.6652 24.8172 20.819 20.7726 22.2122 25.3401 11.0557 9.94663 7.12826 3.22413 1.92231 
<GCONST> 7.386e+1
<MIXTURE> 15 0.0285052
<MEAN> 19
5.57529 4.83305 2.36264 -5.38627 4.36715 -9.64434 1.15994 -8.44538 6.63878 2.71625 6.91988 -1.16994 0.280655 -4.31484 -1.08617 -2.7678 -0.382843 -0.703111 -0.188986 
<VARIANCE> 19
5.27426 14.3017 17.8995 27.099 19.8107 25.2216 26.087 26.7809 26.9998 25.1456 22.188 23.6061 18.9452 17.3615 9.97796 7.3558 5.77881 4.25439 2.13045 
<GCONST> 7.386e+1
<MIXTURE> 16 0.0206199
<MEAN> 19
2.26944 4.5705 1.47997 -8.95003 7.26961 0.402949 12.2889 0.697472 7.46543 -2.51368 2.42031 -3.85868 2.73745 -0.04628 2.25498 -0.293185 0.725614 -0.987818 -0.156592 
<VARIANCE> 19
10.4652 17.3796 14.8924 19.4062 21.1694 26.1483 19.8988 26.9506 25.2815 21.9817 22.9325 19.2329 21.6181 14.9491 10.6777 7.75892 5.25913 2.82623 1.84806 
<GCONST> 7.386e+1
<MIXTURE> 17 0.0224295
<MEAN> 19
0.848464 -5.7546 0.475445 -19.7978 15.9988 6.93182 2.79486 -1.6316 11.6809 -5.66607 0.972753 -7.46691 -1.59779 -1.1855 2.82189 -0.786149 0.0521147 -1.07169 0.540598 
<VARIANCE> 19
8.75755 34.587 21.8895 42.6192 28.6498 38.8713 41.5434 37.4839 30.6827 24.4917 32.1137 19.5569 22.0164 23.7281 12.3905 9.59727 7.92593 5.08951 4.01051 
<GCONST> 7.386e+1
<MIXTURE> 18 0.0257723
<MEAN> 19
-9.18093 -1.01823 22.7554 -0.557682 -1.19819 -5.32721 6.96889 -2.38914 9.57706 -4.52845 8.00794 -0.795206 3.86446 -2.78691 2.02113 -2.43786 0.553996 -1.21704 0.233579 
<VARIANCE> 19
20.7248 12.5273 19.7532 25.574 20.5181 22.8264 30.0954 26.2209 21.7789 27.9294 21.5401 17.1787 17.2272 13.6582 11.8756 8.57269 6.01123 3.3767 1.99761 
<GCONST> 7.386e+1
<MIXTURE> 19 0.0264143
<MEAN> 19
-12.4764 8.16033 18.0778 -9.68047 11.5562 -5.57306 1.51464 0.167078 9.56474 -5.27115 8.33018 0.478108 6.64237 -3.00996 1.64287 -1.25784 1.42329 -1.55265 0.254726 
<VARIANCE> 19
16.0802 16.7061 10.7606 14.4079 25.9648 30.046 23.2016 18.126 26.8063 20.6772 20.8004 17.5647 17.112 13.5493 12.6567 8.32838 5.47517 4.17877 2.29793 
<GCONST> 7.386e+1
<MIXTURE> 20 0.034933
<MEAN> 19
0.812662 8.71154 9.89003 -0.456583 6.39252 -3.83255 10.1441 -2.01952 7.43235 0.138961 3.12201 -4.37605 0.314711 -3.4739 -1.46207 -1.79682 0.543568 -1.08744 -0.34705 
<VARIANCE> 19
5.39444 8.35985 10.3623 13.6557 15.4815 15.7016 15.7382 16.1982 16.8754 16.348 16.0895 11.3659 10.1414 9.49919 7.94592 6.10648 4.73933 2.61199 1.57719 
<GCONST> 7.386e+1
<MIXTURE> 21 0.0185341
<MEAN> 19
4.9697 -0.284285 6.86439 6.54999 5.30505 -23.2711 -4.92714 2.49278 10.1517 -5.23576 3.55267 2.4504 3.20691 -4.15126 -0.354757 -2.85332 -1.48543 -0.511486 -0.391171 
<VARIANCE> 19
5.13174 12.2204 22.471 19.9056 21.805 32.3253 33.7698 28.6673 37.0811 28.0126 24.6857 25.0279 18.6243 13.3452 9.9203 8.76049 6.77653 4.36556 2.11435 
<GCONST> 7.386e+1
<MIXTURE> 22 0.0313142
<MEAN> 19
5.23637 1.53822 -2.05285 -11.2236 7.80649 -2.68777 9.63607 -4.96641 10.2773 5.55031 2.3752 -8.06815 -3.44529 -4.08971 0.372637 -1.11102 0.0221082 -0.923033 -0.194519 
<VARIANCE> 19
6.27748 18.7462 17.9461 29.9032 24.0654 25.1902 27.7987 30.5382 39.0657 18.2883 33.9268 20.9762 16.0328 22.6077 14.0106 8.66994 7.13478 3.59373 2.373 
<GCONST> 7.386e+1
<MIXTURE> 23 0.0206401
<MEAN> 19
0.391724 -6.56229 6.85849 -10.5506 5.87059 -13.4686 9.01691 14.6328 5.05715 -10.5728 1.36121 -7.98247 1.73327 -1.90935 -0.728594 0.302845 1.66958 -1.63769 0.656609 
<VARIANCE> 19
8.24011 24.3051 25.0689 32.0961 31.3148 43.4493 39.1929 42.7264 27.6553 30.1096 33.5068 27.1889 30.8372 21.725 16.2662 12.3055 7.43523 5.1403 3.50548 
<GCONST> 7.386e+1
<MIXTURE> 24 0.0313551
<MEAN> 19
0.804523 3.06906 9.42382 -3.59051 2.88217 -18.6468 -0.384805 -1.30767 14.8454 -3.32496 -1.77998 -0.353487 5.68335 -8.16177 -3.10066 -1.73404 0.820202 -1.42091 0.166288 
<VARIANCE> 19
8.44573 18.1608 17.5044 25.0499 25.8013 30.8139 27.2571 27.1392 35.7753 24.2393 25.6832 23.0815 21.3126 17.9714 13.0314 9.96117 6.13449 4.56393 2.67483 
<GCONST> 7.386e+1
<MIXTURE> 25 0.030193
<MEAN> 19
0.374984 5.73801 17.3746 1.46192 -4.41142 -13.5991 10.1764 -9.99365 1.17321 -0.0533796 5.62579 -3.62144 1.18907 -1.0094 -0.563509 -2.97523 0.557014 -1.19222 -0.456301 
<VARIANCE> 19
5.22898 8.39557 16.8185 19.2348 15.6871 28.1437 20.2164 31.937 27.1775 22.3542 20.3381 17.2407 16.8081 17.5952 11.3449 8.07441 7.19015 3.12968 2.38323 
<GCONST> 7.386e+1
<MIXTURE> 26 0.0341918
<MEAN> 19
1.38577 2.7479 14.2482 1.84576 -1.85769 -17.8312 3.75593 -1.85947 6.37128 -4.34141 6.66587 1.84711 1.8256 -4.90202 -1.28857 -2.03587 -0.412036 -1.86676 0.0739746 
<VARIANCE> 19
7.62442 15.2365 17.7137 23.3916 19.1697 25.7978 30.7027 23.287 41.3082 25.5798 25.3996 19.8555 22.5763 19.1513 13.5942 10.6903 6.04862 4.43774 3.06907 
<GCONST> 7.386e+1
<MIXTURE> 27 0.0242626
<MEAN> 19
-0.163286 0.337882 11.7264 -6.73323 -4.50171 -20.7984 12.5574 3.92381 5.00111 -1.69355 6.19847 -5.3036 0.266363 -6.98946 0.266633 -1.55339 -1.48238 0.12639 1.13223 
<VARIANCE> 19
6.04093 14.6717 13.4962 39.2152 21.1466 34.8624 37.5244 30.5145 38.3363 28.289 23.3785 27.507 17.6341 21.1128 13.7478 11.6208 6.70774 4.38358 3.07824 
<GCONST> 7.386e+1
<MIXTURE> 28 0.0349417
<MEAN> 19
0.885149 8.49487 7.90724 -2.7786 4.67794 -7.0713 4.55814 -2.46407 10.7727 3.20321 7.78434 0.122113 3.61233 -2.05631 -0.504683 -1.72273 0.0482644 -0.815256 -0.0119943 
<VARIANCE> 19
6.37579 7.50085 9.59849 12.5077 13.4932 13.5122 14.8353 14.0795 12.7999 14.177 12.6694 13.3958 11.0828 10.4201 9.20334 6.80833 5.15896 2.91282 1.56382 
<GCONST> 7.386e+1
<MIXTURE> 29 0.045155
<MEAN> 19
0.997641 9.33017 10.4264 0.0622804 6.29659 -6.58376 3.37239 -6.72276 4.58147 -2.75409 3.3428 -2.07919 3.01262 -1.65245 -0.166035 -1.59341 0.204873 -0.97237 -0.317686 
<VARIANCE> 19
6.79997 8.59497 11.0586 13.8042 11.9865 15.1949 12.6278 13.0643 15.3447 12.4539 13.9581 12.6124 9.8516 9.42239 8.25329 6.33947 4.91857 2.99567 1.82672 
<GCONST> 7.386e+1
<MIXTURE> 30 0.0192362
<MEAN> 19
7.43706 1.06568 -6.51125 -5.99441 15.3531 -9.7712 -5.97461 -2.58466 15.5857 6.54059 1.72943 -5.9323 1.44868 -2.9924 -1.38635 -2.12581 0.421689 -0.535826 -0.17972 
<VARIANCE> 19
5.74137 6.53574 18.395 25.9515 18.4033 30.6764 22.3889 22.2997 24.115 25.0249 19.2921 19.3067 16.4577 9.67924 9.02067 5.97599 5.28075 3.03771 1.5867 
<GCONST> 7.386e+1
<MIXTURE> 31 0.0262979
<MEAN> 19
5.7207 5.06505 -1.78545 -21.4651 3.39989 1.6873 10.331 1.52817 6.62805 -3.68705 2.63293 -4.6223 0.310801 -3.97637 -0.934062 -0.869824 1.10749 -0.177769 0.553026 
<VARIANCE> 19
6.61748 14.8025 19.6861 32.5886 38.1648 36.1627 32.782 25.1655 35.9058 27.9342 32.7816 24.5342 19.1022 17.1801 14.0457 7.89575 7.08198 3.85648 2.83421 
<GCONST> 7.386e+1
<MIXTURE> 32 0.0208966
<MEAN> 19
4.00066 7.21799 5.52356 -8.56313 4.54167 -7.08748 13.578 -9.48947 4.91183 0.627755 -7.3181 -4.94541 0.715171 -4.84266 -2.5117 -0.543098 0.726254 -2.42499 0.629781 
<VARIANCE> 19
3.15675 10.1372 16.0473 22.1628 20.5369 27.7767 22.7187 32.9707 24.6146 27.7084 26.811 22.8378 18.4721 17.3233 12.4176 9.28686 5.79514 3.68411 2.67131 
<GCONST> 7.386e+1
<MIXTURE> 33 0.0299915
<MEAN> 19
-10.4154 13.6586 7.59621 -10.1772 11.051 -14.776 6.72178 0.528455 12.8926 -2.19005 4.40054 -1.88827 4.92381 -3.78989 0.833286 -2.39447 1.75735 -1.45859 0.156346 
<VARIANCE> 19
15.5785 16.8355 21.1798 39.5682 19.4957 30.7767 51.8808 35.8967 20.4124 23.8948 23.7745 20.142 15.7727 14.4413 15.6329 9.21775 5.6735 3.59763 1.87339 
<GCONST> 7.386e+1
<MIXTURE> 34 0.0192509
<MEAN> 19
2.93163 -2.30347 5.34746 -2.77823 4.42511 -22.5836 3.16671 10.4637 11.8633 0.0848691 1.58369 -6.42215 2.90798 -5.99339 -2.43251 -1.87628 0.873383 0.180754 -0.00506687 
<VARIANCE> 19
5.54001 12.9164 17.064 24.1235 25.8876 28.4697 24.1626 31.695 31.8484 25.5806 22.2119 28.6568 22.1803 22.7747 15.4314 11.7598 7.62599 5.00578 2.49909 
<GCONST> 7.386e+1
<MIXTURE> 35 0.0182381
<MEAN> 19
2.018 -8.71029 0.847476 -13.2732 13.2781 -7.15312 1.35775 9.98296 13.5693 -11.4173 -1.70303 -7.37978 -0.818349 2.73971 -0.451021 -2.30946 2.24485 -0.479046 0.351848 
<VARIANCE> 19
7.149 22.2883 21.7334 29.7847 27.5379 32.9286 34.2833 45.242 29.8317 25.5501 22.3044 33.2262 38.5309 24.102 16.2322 12.2692 8.26948 5.36739 3.06566 
<GCONST> 7.386e+1
<STATE> 3
<NUMMIXES> 5
<MIXTURE> 1 0.145343
<MEAN> 19
-0.388626 2.46921 15.3702 2.33523 -1.2123 -17.1965 8.72368 -3.18097 3.21122 -4.49574 6.63815 -1.81829 1.87131 -0.272999 0.887708 -1.4455 2.15014 0.0244509 0.122984 
<VARIANCE> 19
6.19746 13.8922 24.3469 48.6686 21.8128 26.7477 36.6281 40.0792 47.8019 23.8812 38.5507 38.8879 39.0722 31.2422 37.3355 22.3047 9.36113 8.84401 4.26926 
<GCONST> 7.386e+1
<MIXTURE> 2 0.113451
<MEAN> 19
2.13323 -3.68704 -1.42016 -17.011 9.89704 -8.67074 4.24538 4.88567 9.83613 -6.12186 -0.33486 -8.96083 2.31968 0.793448 1.16423 0.0721579 3.46731 0.11334 0.548543 
<VARIANCE> 19
14.1161 30.6264 27.755 23.955 60.6189 127.681 50.382 66.6135 40.1414 66.9214 50.2211 38.4451 46.0185 45.568 39.7037 20.0475 17.0396 9.60065 5.26165 
<GCONST> 7.386e+1
<MIXTURE> 3 0.127157
<MEAN> 19
-9.13026 14.5589 9.11943 -4.32157 12.1973 -11.8909 8.86491 -2.56548 10.0248 -2.49331 4.41334 -3.27381 5.57821 -3.13043 -0.330977 -1.48865 1.60492 -1.60269 0.425102 
<VARIANCE> 19
16.8242 17.7644 24.6898 42.1648 22.2231 29.6626 34.964 31.2351 21.8327 17.3995 22.0929 11.7487 18.7445 13.8932 13.3053 8.23873 5.42219 3.33163 2.08288 
<GCONST> 7.386e+1
<MIXTURE> 4 0.35929
<MEAN> 19
-0.59963 7.50582 10.1056 1.75432 8.86183 -3.30818 8.61109 -2.20317 8.14622 -0.410884 4.82332 -2.76494 1.86071 -1.23581 0.0505868 -1.06649 0.820678 -0.406954 0.240745 
<VARIANCE> 19
4.68623 11.2194 10.9364 10.9821 13.8992 14.3831 21.0684 18.3413 17.4374 17.1335 15.0539 15.5125 13.701 9.48879 7.94783 6.04499 4.1516 3.30182 1.68015 
<GCONST> 7.386e+1
<MIXTURE> 5 0.254758
<MEAN> 19
1.61603 2.17847 6.44596 -0.273843 7.92089 -11.2706 5.87438 -4.78193 13.2948 4.20946 1.29407 -6.20025 1.39209 -0.173055 -2.03899 -2.30407 1.72452 -0.573065 0.885637 
<VARIANCE> 19
5.77801 14.3859 17.721 25.1956 19.6446 35.371 29.3676 32.9552 24.8886 25.1709 25.424 19.3522 26.383 15.9107 21.5036 9.84974 7.52572 4.67547 2.29164 
<GCONST> 7.386e+1
<STATE> 4
<NUMMIXES> 30
<MIXTURE> 1 0.0257346
<MEAN> 19
-2.41835 6.55931 10.5734 -1.03245 5.0913 -19.9217 5.52356 -3.58872 12.7578 0.569833 5.59382 -2.36931 5.1404 -0.801393 -5.14608 -4.77162 2.33979 -1.57861 0.245553 
<VARIANCE> 19
13.2729 21.0909 17.2379 26.781 21.7074 19.1781 32.328 32.544 28.8027 25.5079 22.6123 20.5814 15.1365 18.821 13.2066 8.99404 5.96658 3.9881 1.9778 
<GCONST> 7.386e+1
<MIXTURE> 2 0.0935791
<MEAN> 19
-0.457506 8.8975 10.5716 2.10123 10.1963 -1.70869 8.82801 -1.56192 7.05049 -1.18794 5.71839 -1.17975 2.23787 -2.23412 -0.388055 -0.897688 0.65309 -0.60114 -0.124823 
<VARIANCE> 19
2.48081 6.2725 5.34715 6.97884 8.92129 9.67588 11.0936 11.7583 13.5199 12.6706 12.5232 10.8211 8.99206 8.33207 6.18237 4.71243 3.22646 2.20698 1.30497 
<GCONST> 7.386e+1
<MIXTURE> 3 0.0371562
<MEAN> 19
1.09567 3.7564 11.4408 3.54616 3.48328 -14.926 4.73744 2.29175 9.77604 -2.71811 7.83082 2.15777 2.37761 -2.93401 -2.62391 -3.22366 0.96761 -0.90456 0.0525294 
<VARIANCE> 19
6.61787 16.4146 9.79549 15.2832 16.0148 15.5314 25.4987 19.3137 20.7854 20.5972 20.8885 17.1637 14.8036 13.171 10.3268 6.42539 4.85416 3.32458 1.61642 
<GCONST> 7.386e+1
<MIXTURE> 4 0.02318
<MEAN> 19
1.28781 2.78965 20.4162 1.1092 -4.06475 -13.0625 -0.752647 -7.21 5.42231 -9.91369 7.94057 3.41137 -0.605178 2.55479 -1.7712 -2.94653 2.71349 -1.62126 0.55406 
<VARIANCE> 19
4.95342 12.1487 21.9921 21.2724 28.135 36.3813 28.3322 49.3671 28.0183 23.3071 22.9031 22.898 25.4094 17.0634 13.732 9.23524 5.54936 4.07365 3.35483 
<GCONST> 7.386e+1
<MIXTURE> 5 0.0291108
<MEAN> 19
4.34592 -4.73887 -0.653656 -4.86759 11.4528 -4.65801 13.9055 -3.04432 5.69984 2.19309 2.12588 -7.26963 -2.56576 3.32817 0.586654 -4.62308 0.509681 -1.03909 -0.112503 
<VARIANCE> 19
6.21039 24.8795 15.8619 24.092 24.9762 33.6405 28.1995 29.8754 36.8953 24.2466 31.065 19.4108 27.6808 22.3222 11.9696 9.56261 4.50819 2.7555 1.94689 
<GCONST> 7.386e+1
<MIXTURE> 6 0.0202851
<MEAN> 19
6.14482 -1.37542 0.537873 -16.1768 3.16137 4.20188 12.6563 -4.40489 5.29227 -3.04021 9.54175 -5.29931 -6.0436 2.60879 -4.67218 -2.19533 4.28325 -1.20232 -0.233036 
<VARIANCE> 19
2.90978 17.2597 14.0832 34.2125 22.5332 23.5476 29.7278 35.2699 44.2586 31.4381 20.6284 33.1093 21.7465 24.3517 13.9845 13.7522 5.59709 3.80455 2.51091 
<GCONST> 7.386e+1
<MIXTURE> 7 0.0221036
<MEAN> 19
6.40628 -7.61856 1.26668 -3.42039 5.4841 -14.8088 -1.12621 6.35115 20.2966 -7.26653 3.75249 0.806068 -8.22771 1.62438 0.0112903 -6.83148 2.0147 0.173187 0.0240833 
<VARIANCE> 19
3.38842 17.4004 20.471 15.8019 30.3014 32.0591 45.5457 31.4073 27.3126 28.9637 25.2987 21.7727 16.7769 17.4543 14.84 7.82082 5.30936 4.14462 2.05774 
<GCONST> 7.386e+1
<MIXTURE> 8 0.0291476
<MEAN> 19
2.99866 -7.6415 9.29144 -5.09051 -2.45748 -17.3293 8.82704 2.38859 18.7781 -8.7315 2.71338 -0.13821 -4.25507 4.54359 -7.87232 -3.47851 4.52116 -1.94204 0.566287 
<VARIANCE> 19
3.4447 22.1483 14.0727 11.6551 21.7047 35.7315 39.1724 30.5999 25.8746 28.3037 21.8451 27.4081 24.4655 15.698 13.9707 10.1812 4.3329 4.42284 2.68275 
<GCONST> 7.386e+1
<MIXTURE> 9 0.0248119
<MEAN> 19
1.21698 -4.05335 8.14184 0.623761 3.25805 -17.5284 17.1532 1.09088 12.333 -2.60951 -0.384241 -1.47118 -0.706178 0.796336 -5.36943 -3.47835 2.93268 -1.38507 0.172758 
<VARIANCE> 19
4.80513 21.2761 14.1249 20.2538 27.2689 27.2152 27.768 28.2852 40.4095 29.0971 23.9011 24.9 25.4451 15.3951 12.6618 9.40189 5.99637 3.29071 2.52208 
<GCONST> 7.386e+1
<MIXTURE> 10 0.0555936
<MEAN> 19
1.72942 8.19878 10.4251 1.07364 6.75534 -6.83449 3.81954 -5.33009 4.60954 -2.9461 5.16613 -2.07656 1.20941 -2.51843 -1.54451 -2.50283 0.632235 -0.21967 0.352042 
<VARIANCE> 19
5.94986 12.3247 9.91761 11.414 12.9747 12.4582 13.5838 13.9266 16.5502 18.1344 16.7347 13.9298 11.7278 10.9918 8.54641 6.10028 3.75444 2.55076 1.56113 
<GCONST> 7.386e+1
<MIXTURE> 11 0.0323169
<MEAN> 19
-7.45739 2.50001 19.2282 -0.685257 5.12879 -5.51718 6.60949 -1.64147 11.8612 -3.16572 8.47056 -1.33865 3.21088 -2.29659 -0.211895 -4.2171 1.55219 -1.08507 -0.0596436 
<VARIANCE> 19
14.0049 17.1112 26.0584 32.8724 31.5696 28.9433 29.0318 25.6899 25.3796 21.1977 19.4809 16.7701 15.6895 12.4692 10.3947 6.81662 4.31105 3.70233 1.82532 
<GCONST> 7.386e+1
<MIXTURE> 12 0.0341095
<MEAN> 19
5.43222 -6.89403 0.688769 -9.04397 7.21553 -3.3869 7.50093 -4.75996 12.3763 -2.81227 5.83689 -7.53954 -9.18707 7.99771 -2.21251 -5.83627 2.6246 -1.70708 0.556985 
<VARIANCE> 19
2.24214 14.5412 12.3353 17.2244 20.4331 35.1461 25.2229 25.5436 39.4763 20.0758 28.6668 25.3403 23.6313 15.8682 17.5904 7.78867 3.71297 3.15353 2.30587 
<GCONST> 7.386e+1
<MIXTURE> 13 0.0239636
<MEAN> 19
1.98845 -0.154609 17.0266 2.14197 -7.74868 -18.6069 9.49391 -2.11827 3.60292 -3.93751 12.2706 3.13952 -3.20472 2.12655 -2.78185 -4.82559 1.71908 -1.80986 0.6222 
<VARIANCE> 19
3.80194 17.5195 14.3318 17.2209 20.1374 21.7727 25.923 37.9816 25.8774 24.3999 22.0026 20.0848 19.9778 13.7586 12.9339 8.26744 5.15595 2.91844 2.23288 
<GCONST> 7.386e+1
<MIXTURE> 14 0.0193822
<MEAN> 19
4.7855 -1.23694 3.40965 1.94885 10.2188 -19.2372 -5.58962 6.04962 17.6956 -3.00009 1.95239 0.956331 -0.0231875 -2.94445 -1.10355 -4.45042 -0.17371 -0.489349 0.530301 
<VARIANCE> 19
5.94569 11.2493 17.3528 18.7417 19.6201 25.9884 51.73 35.4395 24.2681 26.2944 20.7057 21.7599 23.3914 10.9744 9.78594 7.25788 5.85713 2.9166 1.55656 
<GCONST> 7.386e+1
<MIXTURE> 15 0.0364972
<MEAN> 19
4.98351 -1.49606 8.46937 -0.329457 0.327889 -14.2902 -1.35528 -3.40994 13.3405 -2.21818 4.24166 -2.08462 1.64842 2.04542 -4.72555 -5.84977 1.85778 -0.359868 0.577602 
<VARIANCE> 19
4.44019 23.9889 15.619 19.6034 20.2935 32.4756 21.9949 25.0979 30.8374 21.0662 18.7565 18.5456 19.9476 17.0963 16.0179 7.36243 5.87508 3.29817 1.88961 
<GCONST> 7.386e+1
<MIXTURE> 16 0.044544
<MEAN> 19
3.99796 4.14674 11.9214 0.72751 -0.741483 -7.98759 7.60913 -7.58796 -0.203259 -1.20338 6.74887 -6.41999 1.9373 1.32453 -4.8229 -3.1909 3.0657 -0.243123 0.171445 
<VARIANCE> 19
3.52158 13.4641 13.5618 15.9159 16.5918 24.5765 26.6033 23.5565 20.8181 17.9309 23.6271 16.8072 15.5379 11.8702 10.5715 6.08079 4.03294 3.00374 1.51323 
<GCONST> 7.386e+1
<MIXTURE> 17 0.0312357
<MEAN> 19
6.20322 6.00318 2.8471 -10.2464 0.753831 -3.70886 10.5529 -3.39564 3.35578 -2.35925 8.79245 -0.312621 0.559234 -0.935629 -3.96408 -4.05962 1.53617 -0.240774 0.468631 
<VARIANCE> 19
4.4516 12.5973 13.1586 22.9276 19.7668 20.0748 29.0037 30.1458 22.6708 24.0025 21.3994 24.0517 18.7512 15.5594 9.33327 7.16016 5.49818 3.09433 1.94807 
<GCONST> 7.386e+1
<MIXTURE> 18 0.0314434
<MEAN> 19
2.33837 -0.559352 11.5133 -0.28708 -3.54303 -21.5516 7.4676 2.79445 14.3231 -1.7661 7.79981 1.58101 -0.277092 -0.858951 -7.15049 -3.293 2.45224 -2.15455 0.750887 
<VARIANCE> 19
4.94215 16.7876 13.5396 14.8057 16.6922 24.4971 32.2426 28.0558 23.8351 18.161 20.8665 21.5671 24.4184 14.2821 15.6155 8.97472 4.88224 4.37048 2.21573 
<GCONST> 7.386e+1
<MIXTURE> 19 0.0625611
<MEAN> 19
-9.94231 13.1838 10.2286 -0.541633 11.0176 -11.6996 12.0598 -4.38767 10.7692 -2.06372 8.16781 -2.06443 4.63374 -3.23033 -1.24382 -3.14685 2.00779 -1.63642 0.332938 
<VARIANCE> 19
11.549 12.9571 13.6319 26.9079 25.0619 23.0737 20.5393 23.0907 22.8589 21.3651 17.0693 15.316 11.3832 11.395 8.17285 6.86309 4.51385 2.86832 1.58109 
<GCONST> 7.386e+1
<MIXTURE> 20 0.0247975
<MEAN> 19
-0.898254 1.2566 17.4069 1.42322 -3.60845 -9.2069 14.1569 -4.3872 6.05807 -1.33772 8.8411 -0.468827 0.348767 0.0447909 -3.51053 -2.77439 1.23143 -1.7202 0.744516 
<VARIANCE> 19
7.52014 18.0361 14.954 18.059 21.0097 25.1948 37.0069 40.9918 21.271 22.3546 23.9397 19.4381 19.8573 14.4533 13.5589 9.07914 5.70498 4.04142 2.55392 
<GCONST> 7.386e+1
<MIXTURE> 21 0.0610605
<MEAN> 19
-2.63216 1.16427 14.0082 6.91384 7.89393 -5.98211 10.8383 1.10707 6.78526 -5.13328 5.8547 0.64446 3.46957 -2.84701 -1.24128 -1.46905 0.680339 -0.95812 0.355799 
<VARIANCE> 19
4.20697 13.471 7.25973 7.8231 12.9733 14.1422 19.4956 17.0774 18.9667 18.1195 14.483 15.341 10.9494 10.064 7.71919 6.55437 4.09256 2.51697 1.53229 
<GCONST> 7.386e+1
<MIXTURE> 22 0.0401158
<MEAN> 19
1.40712 6.25368 7.11023 -2.45813 3.68451 -9.17099 8.6148 2.26908 14.2873 1.57217 5.18535 -4.30292 0.222697 -2.74422 -2.19781 -2.6556 1.35956 -0.0716623 0.497746 
<VARIANCE> 19
9.07285 16.1657 12.4944 12.7293 20.0418 20.1541 21.2896 18.8175 20.3828 18.0639 22.9355 16.3869 13.6946 13.0695 9.82665 6.31871 4.4884 2.52247 1.54979 
<GCONST> 7.386e+1
<MIXTURE> 23 0.0266706
<MEAN> 19
5.7293 2.53597 4.27443 -3.89537 3.84839 -10.0108 -0.219705 -8.99123 8.7561 2.10592 10.9843 -1.41984 -2.95476 0.380199 -1.52626 -4.4752 0.396781 -0.804533 0.307787 
<VARIANCE> 19
5.75334 18.1345 13.8824 24.4157 16.7409 23.6115 34.3433 35.1076 36.7334 29.2533 20.7141 26.3283 18.2037 20.5733 12.8551 8.15018 5.62147 3.48669 2.07722 
<GCONST> 7.386e+1
<MIXTURE> 24 0.0314149
<MEAN> 19
4.16304 -3.25504 2.73086 -3.86421 5.63906 -14.6344 7.80359 -0.435593 17.7313 2.50992 3.0969 -7.41863 -5.45922 4.72672 -3.72841 -6.29496 2.78054 0.0320954 0.746233 
<VARIANCE> 19
4.6173 13.5792 13.2775 18.2325 22.0524 27.658 24.6662 29.1343 27.9121 22.2167 23.3462 20.1439 27.1255 17.0024 16.1654 9.03884 6.03039 3.45339 1.96385 
<GCONST> 7.386e+1
<MIXTURE> 25 0.0293467
<MEAN> 19
2.44553 -4.37675 17.3251 -3.94893 -10.0452 -16.0489 5.29403 0.309491 10.2012 -7.41591 12.2366 1.80019 -2.44317 3.15681 -7.64705 -1.96336 1.90209 -3.24552 1.99408 
<VARIANCE> 19
3.59334 16.5927 11.3772 14.1846 18.1257 42.1603 40.0305 29.6101 36.333 20.6171 26.3579 22.871 22.0473 14.2938 11.5761 10.4187 5.81394 3.86528 3.04328 
<GCONST> 7.386e+1
<MIXTURE> 26 0.0250028
<MEAN> 19
5.00798 -2.97167 10.8447 1.97274 -1.08933 -21.6829 -4.88535 3.70798 12.4837 -10.2204 9.02362 6.42447 -1.61969 1.3156 -2.87335 -5.50188 1.78279 -1.22066 0.0880905 
<VARIANCE> 19
3.69632 12.8301 17.5688 21.2931 24.9066 29.7346 37.3322 31.5737 30.5019 26.5424 18.4326 26.2597 21.101 16.4161 14.0197 9.08255 4.99831 3.6564 1.80441 
<GCONST> 7.386e+1
<MIXTURE> 27 0.0143285
<MEAN> 19
7.07617 0.523031 -3.28689 -4.85168 14.4325 -10.9861 -8.30351 -1.99653 17.2549 3.68828 3.38862 -2.27459 -0.820148 -3.48107 -1.49985 -3.93834 0.711179 -0.437861 0.13276 
<VARIANCE> 19
7.22716 9.48676 17.1742 24.4632 26.9471 22.2429 36.4058 31.743 28.7672 27.6471 37.3985 31.7898 20.3014 15.0606 10.8409 6.99745 6.38002 3.22108 1.6458 
<GCONST> 7.386e+1
<MIXTURE> 28 0.0254733
<MEAN> 19
3.50389 -5.95738 10.0785 -1.23311 -2.48045 -13.018 10.2572 5.95278 11.1316 -9.63212 4.32046 -0.481822 -2.95215 0.631375 -4.57077 -4.02814 3.2212 -1.53519 0.371817 
<VARIANCE> 19
3.93886 19.4523 14.9045 15.4789 20.6953 35.1997 31.4863 30.3437 24.4203 19.0124 22.6629 20.3012 23.588 17.7746 14.6191 11.4955 4.38091 4.01202 2.60268 
<GCONST> 7.386e+1
<MIXTURE> 29 0.0236641
<MEAN> 19
3.57559 -9.17801 1.78002 -4.80611 7.15681 -10.7509 14.7545 0.195273 16.235 -5.49314 -4.38514 -5.4469 -3.67522 6.88596 -3.33132 -6.31962 3.17191 -0.528072 -0.184435 
<VARIANCE> 19
3.40371 22.1618 13.2731 12.9704 22.9016 35.2979 27.672 31.944 24.0718 30.2754 20.818 31.3851 25.7621 17.6237 20.2448 11.9692 5.22055 3.86329 2.94705 
<GCONST> 7.386e+1
<MIXTURE> 30 0.0213692
<MEAN> 19
6.71237 -0.869702 -2.18757 -9.5167 7.81786 -5.47577 7.41521 0.283177 7.3268 -1.66555 10.0433 -0.212587 -7.96048 -3.09013 0.168482 -3.43755 1.89377 -0.0447378 0.0199542 
<VARIANCE> 19
3.94304 18.913 14.2707 21.796 17.83 27.8018 31.5868 30.506 36.8071 27.112 24.2504 26.6106 25.3077 21.5548 14.9374 8.73016 5.0725 2.72371 1.60705 
<GCONST> 7.386e+1
<STATE> 5
<NUMMIXES> 25
<MIXTURE> 1 0.0323977
<MEAN> 19
4.40247 -0.421573 -0.26206 -10.9638 8.67475 -1.47917 11.6 -2.58807 10.9341 0.0446803 8.62162 -5.06105 -10.3422 0.955126 -0.977063 -3.17623 3.06316 -0.976199 -0.599002 
<VARIANCE> 19
5.86734 21.0454 13.5638 38.4911 25.8236 35.9158 37.1882 41.6588 31.5667 28.7072 33.1446 30.8661 32.0897 20.6083 11.4395 10.4571 6.72966 3.80022 1.94244 
<GCONST> 7.386e+1
<MIXTURE> 2 0.0700213
<MEAN> 19
0.732993 8.94115 10.7764 1.60567 6.79324 -7.10774 3.91581 -4.00373 5.84245 -1.86688 6.50046 -0.203725 2.49837 -1.8831 -0.207934 -1.3163 0.276586 -0.601138 -0.0833605 
<VARIANCE> 19
4.15028 6.01353 7.63191 8.3303 10.0585 11.2902 10.5659 11.1463 11.8115 14.7611 12.6186 11.3785 11.1379 11.1175 8.56092 5.84598 4.05986 2.52064 1.51791 
<GCONST> 7.386e+1
<MIXTURE> 3 0.0327555
<MEAN> 19
2.57267 -6.78397 4.64393 -3.3451 6.25397 -17.8762 11.1474 3.53494 16.4613 -4.82158 -2.32877 -1.90794 -4.66986 2.44016 -3.36893 -5.37071 3.9667 -0.121783 -0.0931063 
<VARIANCE> 19
4.11274 18.1732 11.7885 20.7309 24.8753 37.9156 33.1717 28.6997 30.1877 30.9083 20.6772 29.0764 21.8983 19.2144 18.3857 7.62783 4.64382 3.30404 1.72033 
<GCONST> 7.386e+1
<MIXTURE> 4 0.0283778
<MEAN> 19
4.2654 0.215361 5.12722 -2.53803 6.12023 -12.4423 -1.6233 -3.08874 15.0175 1.15727 8.3403 -3.43418 -5.09504 1.74297 -0.667301 -6.24331 0.476469 -0.23305 0.316715 
<VARIANCE> 19
5.63538 19.9774 17.6055 25.9169 21.1722 29.9491 22.1321 20.5512 29.6285 21.4022 21.0196 21.5733 21.1336 15.2149 13.5848 9.18894 5.36518 2.97482 2.31761 
<GCONST> 7.386e+1
<MIXTURE> 5 0.0162916
<MEAN> 19
1.84418 1.43626 17.4013 2.58237 -4.57521 -21.4766 0.430914 -3.7144 2.05106 -9.73473 12.5839 6.76379 -0.757107 3.15367 -0.527065 -2.90025 1.93519 -2.2043 0.840392 
<VARIANCE> 19
6.82897 18.1564 26.5844 26.8622 19.2272 28.9773 37.4644 56.5775 15.6442 25.5461 19.9405 16.4631 20.7923 16.5501 23.8551 8.88987 7.17996 4.38952 2.79768 
<GCONST> 7.386e+1
<MIXTURE> 6 0.0503309
<MEAN> 19
0.804135 8.54625 11.073 1.16491 7.50721 -2.83076 8.81009 -6.81977 1.83485 -2.70013 2.56244 -4.26837 1.33833 -2.68823 -1.41033 -1.35134 1.00502 -0.247588 0.320505 
<VARIANCE> 19
4.3252 6.66063 9.20083 10.4096 14.2951 14.2441 17.8822 18.454 12.9123 24.1823 16.1471 16.8106 13.2245 13.7931 10.6679 6.96303 4.53905 2.72079 1.58597 
<GCONST> 7.386e+1
<MIXTURE> 7 0.0230808
<MEAN> 19
2.56971 -7.5023 1.80226 -11.1337 10.431 -1.86754 5.98308 -3.28286 14.7795 -9.11269 1.32535 -5.58331 -3.84142 7.98516 -1.85945 -4.89796 0.642225 -0.865144 1.12011 
<VARIANCE> 19
6.99907 23.843 14.7825 29.2521 21.6789 52.6002 29.3984 37.8848 29.558 28.829 62.0183 21.9901 45.1254 45.8777 20.156 13.9979 6.4117 4.34005 2.6844 
<GCONST> 7.386e+1
<MIXTURE> 8 0.0227764
<MEAN> 19
3.90588 -5.48479 4.54457 -5.55573 6.52616 -14.0299 1.7348 5.5443 23.95 -6.30938 3.20327 -2.18526 -9.3858 3.29022 -4.25329 -5.97141 2.93768 0.0391704 1.01114 
<VARIANCE> 19
3.40454 15.8775 16.7582 12.9035 23.4036 29.094 40.9341 27.7308 25.5808 31.3064 19.781 30.8362 26.1558 15.8982 25.5955 13.841 6.20736 3.59106 2.43595 
<GCONST> 7.386e+1
<MIXTURE> 9 0.0342498
<MEAN> 19
0.780247 2.14998 8.98311 0.620314 5.94532 -19.946 6.40132 -1.11924 15.3551 1.99517 2.51893 -3.48347 1.7933 0.949114 -7.3109 -4.53271 3.27959 -0.927097 0.409535 
<VARIANCE> 19
6.20413 14.7722 13.2552 17.7497 24.1407 25.4142 32.9362 21.4206 24.5488 30.2675 25.9554 23.0312 18.1375 13.1862 16.231 10.0203 5.77805 3.82439 1.98482 
<GCONST> 7.386e+1
<MIXTURE> 10 0.0735053
<MEAN> 19
-0.900126 9.05769 10.9469 2.26504 10.9708 -1.45726 8.92291 -0.860158 8.35163 -1.6003 3.4701 -3.60881 1.16628 -2.50032 -0.653168 -1.14627 0.507084 -0.673938 -0.122935 
<VARIANCE> 19
3.43759 6.76007 5.80694 7.10435 9.49636 10.4462 10.9127 9.90304 9.60628 10.5441 8.43711 7.23832 8.80941 6.93578 6.41288 5.16756 3.51491 2.28931 1.34123 
<GCONST> 7.386e+1
<MIXTURE> 11 0.0374692
<MEAN> 19
0.973289 1.94484 13.4554 3.57554 -0.279628 -19.0676 5.37719 -0.281824 7.6907 -2.42821 6.63064 1.48144 4.45821 -1.82878 -4.62997 -1.71586 1.72383 -2.11232 0.0305768 
<VARIANCE> 19
7.6579 17.094 13.6693 15.9255 23.2948 22.4787 34.9202 28.3701 14.6331 22.1026 24.3183 19.2409 17.6582 13.2569 14.0351 16.7893 5.71269 4.84332 2.45641 
<GCONST> 7.386e+1
<MIXTURE> 12 0.0388674
<MEAN> 19
0.652994 7.74765 8.33322 -1.82203 4.81193 -9.40578 6.98167 2.25431 13.3762 1.86576 6.70582 -2.53602 0.166473 -4.08904 -2.3387 -2.99241 0.830425 -0.142441 0.437143 
<VARIANCE> 19
11.0169 11.2435 14.2479 17.9045 16.3444 21.2281 18.6662 23.3364 16.727 17.2689 19.0542 18.5944 16.1161 8.43455 9.22278 7.44954 3.84395 2.71646 1.65715 
<GCONST> 7.386e+1
<MIXTURE> 13 0.0717637
<MEAN> 19
-9.42939 14.5677 9.24187 1.10037 11.8645 -10.7402 13.7208 -5.77282 10.0843 -1.98462 6.94757 -2.62219 3.74349 -2.82874 -1.12799 -1.98303 2.00766 -1.8456 0.155586 
<VARIANCE> 19
8.51916 10.3471 12.2233 16.7574 21.9433 22.7027 17.775 18.7296 23.4861 16.6392 14.5296 14.7674 11.0374 10.5206 7.55439 6.71496 4.36256 2.97696 1.55636 
<GCONST> 7.386e+1
<MIXTURE> 14 0.0288448
<MEAN> 19
-7.49301 4.40749 19.5598 -3.70356 5.78282 -5.03669 5.85931 0.18724 12.5665 -4.21587 7.75676 -1.53762 1.81864 -3.18477 -0.204198 -4.0904 1.99074 -0.370352 -0.0813201 
<VARIANCE> 19
13.38 22.9051 16.3628 24.132 31.575 40.5801 26.2188 24.8877 43.5688 18.6428 20.8782 17.7814 17.0585 11.8196 10.7868 7.14921 5.64831 2.86715 2.17029 
<GCONST> 7.386e+1
<MIXTURE> 15 0.0313194
<MEAN> 19
4.57232 6.50182 2.26603 -8.95179 3.86674 -4.41495 9.28769 -3.52726 5.48278 -2.51326 9.03538 0.627367 -0.305491 -1.65436 -2.97694 -3.89741 0.971658 0.271395 0.596213 
<VARIANCE> 19
7.27949 10.8645 14.1256 18.794 22.2236 23.4085 31.0751 42.1099 22.8288 22.1229 27.5457 21.9733 23.8334 14.6961 10.4176 9.34524 4.5598 3.31054 2.12763 
<GCONST> 7.386e+1
<MIXTURE> 16 0.0874374
<MEAN> 19
-0.582293 9.45451 10.8601 1.902 10.1842 -1.18807 8.70894 -1.67458 7.25667 0.180267 7.44117 0.560357 2.82762 -2.18153 -0.284751 -1.07919 0.299127 -0.701199 -0.370741 
<VARIANCE> 19
1.78008 3.95086 4.59075 6.70765 7.61125 8.41374 9.00369 9.27105 12.386 10.6334 8.05899 7.20966 8.96901 7.5001 5.61631 4.79393 3.01517 2.21277 1.14772 
<GCONST> 7.386e+1
<MIXTURE> 17 0.0335161
<MEAN> 19
1.31367 5.04538 15.4597 1.98712 -1.12972 -11.4236 7.88143 -7.56689 0.392828 -1.54647 7.44589 -4.88225 1.66667 0.478903 -3.16347 -2.96443 1.64473 -1.00878 0.394626 
<VARIANCE> 19
8.06582 10.7068 19.5112 21.8398 17.0329 25.96 24.2855 26.2957 17.9794 19.3573 33.3256 21.7326 15.9334 17.5463 14.4913 7.54807 6.16081 3.83253 1.76565 
<GCONST> 7.386e+1
<MIXTURE> 18 0.036386
<MEAN> 19
3.81424 -0.683933 10.9079 2.95291 3.24538 -19.1785 -6.49257 5.40628 14.2268 -10.2013 6.11211 4.52827 -0.603604 -0.63978 -2.69519 -5.08202 1.60471 -0.649956 -0.164284 
<VARIANCE> 19
3.67848 16.9022 17.3299 15.5441 20.0526 33.1214 41.1948 30.4191 26.6733 27.5423 27.5962 22.3706 13.1237 15.2026 13.3601 8.66765 4.63224 3.47404 1.89576 
<GCONST> 7.386e+1
<MIXTURE> 19 0.0240492
<MEAN> 19
6.58802 -1.17691 -2.64767 -2.59596 12.9163 -15.3817 -6.66729 2.44613 19.2907 1.70683 1.57743 -2.17 -1.00989 -2.86273 -1.00176 -3.96967 0.602664 -0.269287 0.320344 
<VARIANCE> 19
6.57146 14.8086 22.3811 26.3525 23.6312 30.1425 31.1618 45.7333 26.7541 30.0168 17.0094 18.8961 17.6962 12.3684 11.3406 10.2797 4.78065 2.35372 1.70611 
<GCONST> 7.386e+1
<MIXTURE> 20 0.0337611
<MEAN> 19
2.42793 -1.67156 2.91306 -5.02835 7.89922 -7.61429 11.1646 -2.11701 15.6757 0.884584 -1.11106 -8.51563 -1.57974 2.25036 -2.74418 -3.88758 1.55788 -0.487335 0.512846 
<VARIANCE> 19
5.11455 29.9935 18.2181 30.5259 31.6388 36.2432 22.3407 33.6673 46.6354 23.8851 25.3492 21.1528 28.8734 26.1588 14.7221 13.6972 6.66502 3.01664 2.51027 
<GCONST> 7.386e+1
<MIXTURE> 21 0.0413498
<MEAN> 19
1.86647 -3.27912 11.9197 -0.579425 -2.06515 -18.1285 9.33355 6.21267 8.9275 -6.51046 8.42787 1.77967 -0.867956 -0.547142 -5.43242 -3.51371 2.22407 -2.37364 0.437066 
<VARIANCE> 19
5.17547 20.7949 17.0773 31.3947 32.5571 48.1733 31.8425 30.5354 23.1405 25.6298 25.4612 35.5565 18.5384 19.8683 14.1514 8.70073 6.44762 3.91154 1.94105 
<GCONST> 7.386e+1
<MIXTURE> 22 0.0259471
<MEAN> 19
-0.0342799 3.73202 21.1165 1.70472 -2.10493 -12.79 1.49689 -4.75155 4.45236 -12.4808 9.84975 3.82658 -5.71758 2.60418 -0.649496 -2.37584 1.92019 -1.81757 1.58975 
<VARIANCE> 19
2.31566 9.51691 10.9519 16.8112 23.6144 20.3954 29.9259 46.9197 20.4007 17.6358 18.922 17.6674 21.2562 13.4054 10.2602 6.87312 4.95478 3.08116 2.65925 
<GCONST> 7.386e+1
<MIXTURE> 23 0.0439133
<MEAN> 19
-0.3972 0.99099 10.7124 6.19252 9.58389 -9.83044 5.9097 1.62975 10.1779 -3.83277 2.55858 -1.4489 2.91648 -1.58934 -1.48822 -3.25756 0.999501 -0.706543 -0.0913263 
<VARIANCE> 19
10.1835 15.6955 18.5 16.4694 18.7509 24.7759 24.3881 17.1637 15.246 18.1743 18.7085 17.831 14.5191 15.0431 9.69179 7.06834 4.92654 2.88561 1.34668 
<GCONST> 7.386e+1
<MIXTURE> 24 0.028368
<MEAN> 19
-1.13769 8.38192 9.32983 2.19431 8.05382 -13.9514 1.87218 -8.62687 12.9603 -0.412616 4.09993 -4.02521 4.72884 -0.878507 -3.82999 -4.0936 1.33666 -0.591795 0.208335 
<VARIANCE> 19
11.9782 17.7442 11.7475 17.8136 22.3203 31.7754 27.2673 17.2438 30.7741 29.5362 21.1409 19.5233 24.9459 18.915 12.924 8.37014 5.19532 2.85367 2.56506 
<GCONST> 7.386e+1
<MIXTURE> 25 0.0532204
<MEAN> 19
-2.95742 2.99862 15.5881 5.02038 5.62574 -6.93116 12.2802 -0.319681 4.13412 -3.12538 7.80685 -0.702654 3.01648 -1.81158 -0.300799 -1.43538 0.588345 -1.08124 0.0387645 
<VARIANCE> 19
8.43791 11.3587 10.179 14.6271 17.2697 21.2773 15.9305 18.2401 14.2634 17.7837 14.83 14.1526 14.0493 13.1465 8.44035 7.60204 4.49395 3.86545 2.09143 
<GCONST> 7.386e+1
<TRANSP> 6
0 0.25 0.25 0.25 0.25 0 
0 0.2 0.2 0.2 0.2 0.2 
0 0.2 0.2 0.2 0.2 0.2 
0 0.2 0.2 0.2 0.2 0.2 
0 0.2 0.2 0.2 0.2 0.2 
0 0 0 0 0 0 
<ENDHMM>
