~o
<STREAMINFO> 1 19
<VECSIZE> 19 <NULLD><USER><DIAGC>
 ~h "proto"
<BEGINHMM>
<NUMSTATES> 12
<STATE> 2
<NUMMIXES> 5
<MIXTURE> 1 0.148385
<MEAN> 19
-7.80604 -5.15898 1.03647 -12.3128 -17.9308 -11.4108 -0.763629 -7.58637 -5.3951 -0.265815 -5.25535 -4.39497 -6.03709 -3.32439 -1.52193 1.87945 -1.46186 1.27041 -0.16579 
<VARIANCE> 19
9.47963 18.0408 31.0989 24.5718 25.786 58.7308 45.5365 56.7686 35.6732 72.1544 35.305 19.9635 23.557 16.8809 21.5909 14.4708 13.9188 8.39774 5.38631 
<GCONST> 7.26035e+1
<MIXTURE> 2 0.169381
<MEAN> 19
-4.10112 -6.08046 -11.3504 -12.2563 -6.85186 -3.26395 -6.96256 -3.95411 2.05958 -2.92514 -7.2803 -4.87209 -4.57213 -1.17538 -2.721 0.52334 -1.76486 -0.198195 -0.690911 
<VARIANCE> 19
15.6282 17.3311 24.3966 31.6662 19.7204 31.384 28.2001 33.0928 48.2962 43.6613 32.164 15.4724 25.3962 23.9165 15.3875 8.49664 7.27088 5.71467 3.04048 
<GCONST> 1.27235e+1
<MIXTURE> 3 0.206775
<MEAN> 19
-8.74294 0.994076 -1.72073 -0.9836 -4.79698 -2.87941 -3.11919 -2.2002 1.03274 0.210643 -1.24671 0.758487 -2.25712 1.10421 -1.71861 0.484375 -0.773098 -0.308919 -0.662971 
<VARIANCE> 19
18.3024 23.3322 28.7404 18.261 30.2444 31.5406 24.4357 28.2496 23.9628 17.1084 15.8382 21.4988 14.091 11.2005 9.9449 6.00695 4.4641 3.11602 1.47064 
<GCONST> 3.9735e+1
<MIXTURE> 4 0.146932
<MEAN> 19
-4.43114 -3.36453 -3.29453 -4.58136 -12.0677 -16.2809 -9.86288 -3.74908 -0.552621 0.287068 -3.30684 -0.495933 -4.53062 -1.42166 -6.08713 -0.503645 -2.53774 -1.38266 -1.11736 
<VARIANCE> 19
5.32294 18.4644 18.801 22.5657 30.1674 48.2491 39.4999 37.3627 43.588 23.0118 28.1737 26.6483 24.6569 28.9215 17.1256 12.3185 7.59946 3.93628 2.84206 
<GCONST> 8.6273e+1
<MIXTURE> 5 0.328527
<MEAN> 19
-10.2415 -1.98651 -5.22992 -3.57692 -8.01848 -7.66967 -6.63705 -5.34541 -5.82895 -5.64103 -5.8601 -3.7317 -3.99605 -1.15376 -3.09453 -0.409602 -0.992662 -0.187014 -0.267518 
<VARIANCE> 19
18.1411 29.2894 14.9598 17.6195 22.7969 22.9962 23.6419 24.0452 21.1802 23.1205 16.7099 16.3114 13.2202 14.8017 10.9712 7.01612 4.36297 3.10265 1.73001 
<GCONST> 1.96513e+1
<STATE> 3
<NUMMIXES> 5
<MIXTURE> 1 0.327135
<MEAN> 19
-11.6405 -2.14447 -4.70292 -1.98877 -7.59562 -5.47538 -4.62896 -3.52905 -3.41204 -3.15525 -2.70641 -1.94625 -3.80712 -1.3356 -2.73269 -0.542586 -0.814225 -0.2456 -0.245179 
<VARIANCE> 19
21.8391 25.7942 28.3935 22.9365 25.1752 27.6021 20.9035 23.0118 21.2567 18.6155 19.7602 17.7648 16.6136 14.8584 10.4551 7.81399 5.00492 3.50286 1.65263 
<GCONST> 9.95265e+1
<MIXTURE> 2 0.165257
<MEAN> 19
-5.72345 -4.48499 -0.865581 -11.4139 -13.6278 -15.1258 -7.65921 -6.82865 -3.05711 4.91054 -4.43119 -2.33361 -6.05079 -4.44405 -7.05748 -0.300152 -2.33479 1.67946 0.848744 
<VARIANCE> 19
11.4388 28.9936 71.4516 28.7522 37.1117 58.3551 54.5034 39.9033 73.7755 52.0281 37.6528 40.3993 30.7629 40.9075 29.3361 24.2906 19.7356 9.68328 5.34666 
<GCONST> 1.71686e+1
<MIXTURE> 3 0.128212
<MEAN> 19
-8.2228 -12.6513 -6.94611 -16.0187 -6.50671 -9.75056 -1.89763 -0.643217 -4.40442 -9.60614 -4.24228 -0.616084 -4.24921 -1.85826 -0.518721 0.166656 -3.5734 0.0564465 -0.958106 
<VARIANCE> 19
8.2292 19.3088 19.0438 23.3812 55.3393 42.6603 59.8801 30.1161 56.5342 42.4614 32.119 33.6996 31.6346 21.726 28.2785 10.6482 10.7801 9.91408 4.26482 
<GCONST> 7.38262e+1
<MIXTURE> 4 0.14908
<MEAN> 19
-3.52781 -10.5753 -1.37937 -3.92222 -20.4022 -10.0254 -9.85938 -3.04112 3.6846 -5.42006 -0.346667 0.193931 -10.1906 0.222721 -1.80431 -3.206 -1.64214 1.381 -0.469394 
<VARIANCE> 19
4.46097 22.9144 27.5072 41.8719 29.2328 51.8121 31.1597 26.8243 53.6681 51.2903 26.1428 50.7687 25.5382 18.3987 11.9434 12.2441 8.67316 3.12795 1.77568 
<GCONST> 1.80246e+1
<MIXTURE> 5 0.230315
<MEAN> 19
-8.44157 -3.293 -4.84264 -4.90015 -7.14176 -5.67411 -7.52819 -6.46038 -5.63229 -6.8191 -8.15832 -4.5886 -5.20204 -1.0435 -4.25778 -0.635245 -1.72085 -0.0191667 -0.503501 
<VARIANCE> 19
14.4691 20.0703 18.3822 25.8021 30.4588 25.7343 24.425 24.201 23.6904 17.1665 20.1846 17.1408 16.6992 15.8933 10.3002 7.26538 4.55878 3.24106 2.4138 
<GCONST> 6.36061e+1
<STATE> 4
<NUMMIXES> 35
<MIXTURE> 1 0.0115306
<MEAN> 19
-4.25008 -3.59334 -0.677075 -1.64699 -16.3944 -16.4246 -11.9567 -5.06919 -4.42125 -5.77672 -2.43893 -0.917399 -2.15265 3.22219 -3.67445 -0.612062 -1.22638 -1.2515 -1.42392 
<VARIANCE> 19
7.6563 14.7959 20.8858 26.9914 18.9239 19.1846 29.6977 39.3737 29.4854 23.9328 23.4194 32.9154 26.0469 17.6787 26.1716 14.9739 9.46691 6.57595 3.13993 
<GCONST> 5.20191e+1
<MIXTURE> 2 0.0495437
<MEAN> 19
-7.14495 5.31375 -0.294523 0.0650009 -3.84063 -3.36788 -5.16122 -5.4082 -4.90816 -4.53871 -4.41597 -2.47864 -2.93355 -0.737911 -2.06195 -0.42567 -0.536222 -0.2283 -0.321782 
<VARIANCE> 19
3.42803 4.91147 4.20007 5.58333 7.30471 8.52606 9.23051 10.0349 9.71545 9.90255 9.97381 10.666 10.1659 9.02147 6.5166 4.9947 3.06287 2.14563 1.27483 
<GCONST> 5.82987e+1
<MIXTURE> 3 0.0196317
<MEAN> 19
-3.20152 -4.60734 -8.68533 -7.63047 -13.2495 -10.5482 -8.29117 0.27324 5.60838 1.93756 -4.82015 -7.04813 -5.75122 1.1265 -4.00662 -1.87004 -1.19314 0.804416 -0.130487 
<VARIANCE> 19
11.8275 11.9172 16.0266 18.9004 16.1163 18.8093 25.344 20.4939 18.6542 19.6371 25.9961 19.9516 17.9331 15.7814 12.8976 8.88356 5.74211 3.72748 2.1048 
<GCONST> 1.86575e+1
<MIXTURE> 4 0.0168348
<MEAN> 19
-7.33418 -4.15934 2.53935 -8.53301 -20.2725 -12.7342 -5.16181 -8.13924 -4.04244 1.976 -1.12534 -2.18111 -5.01655 -2.67063 -4.44905 -1.36496 -3.42871 0.0988941 -0.857051 
<VARIANCE> 19
6.35216 16.2836 26.9067 44.3116 19.6601 48.5237 37.1838 37.2061 40.1377 30.1914 31.4513 25.1953 23.5658 20.3784 18.7357 15.4448 8.02645 5.86903 3.93484 
<GCONST> 4.02602e+1
<MIXTURE> 5 0.0490163
<MEAN> 19
-9.34918 -2.05986 -5.24038 -3.01375 -7.08864 -4.07132 -6.94362 -7.7995 -5.34943 -7.55746 -8.04969 -1.9765 -3.44314 2.83084 -2.6705 1.03428 -0.732337 -0.091413 -0.632665 
<VARIANCE> 19
2.28296 4.01961 4.58032 5.99433 6.45082 7.73496 8.05889 8.49847 8.77426 7.80423 7.21356 8.47215 6.68426 5.38966 5.7916 4.61328 3.14891 2.44386 1.39127 
<GCONST> 3.71333e+1
<MIXTURE> 6 0.0234
<MEAN> 19
-5.73499 -3.29976 -8.91385 -7.86211 -4.62995 4.00643 -1.51522 -3.33369 -0.135732 -1.09032 -4.68719 -3.60444 -5.84435 2.09218 -0.806974 2.63119 -1.25919 -1.31196 -1.28846 
<VARIANCE> 19
4.93184 8.65809 7.71849 12.45 12.1731 16.5415 19.2423 18.7939 18.2229 21.3688 26.6614 19.2133 15.2466 12.6151 9.8659 6.03538 4.50382 3.0889 1.71163 
<GCONST> 1.62541e+1
<MIXTURE> 7 0.0308612
<MEAN> 19
-6.46629 -0.869498 -0.42043 0.72521 -8.7807 -6.72353 -6.03284 -2.75201 0.151595 -1.09183 0.979768 5.53707 -0.646877 1.94603 -3.06095 0.530833 -2.19108 -1.61206 -1.14214 
<VARIANCE> 19
3.44123 9.88846 12.3779 11.7999 12.9245 14.2237 14.5974 16.2581 13.166 14.432 13.1381 11.0275 10.0033 10.3471 8.03485 5.33983 3.49884 2.52997 1.40159 
<GCONST> 3.28897e+1
<MIXTURE> 8 0.0423878
<MEAN> 19
-8.50845 -1.88274 -4.44447 -2.56331 -7.56684 -5.38296 -6.08587 -2.74201 1.07019 -3.45223 -7.35784 -3.10859 -4.703 0.907203 -3.66354 0.597177 -0.898656 -0.204145 -0.523024 
<VARIANCE> 19
4.39284 6.34203 5.53463 7.97757 8.34168 8.7766 9.52582 8.048 6.89768 7.99163 9.45091 8.39864 8.44084 7.96323 7.04524 5.40823 3.59256 2.3786 1.38834 
<GCONST> 9.17849e+1
<MIXTURE> 9 0.0182878
<MEAN> 19
-15.517 2.98589 -3.56879 -7.50032 -0.0805789 -7.40978 -5.65248 -0.330896 -4.19786 -1.60472 -3.31379 -2.68753 -1.09253 -2.16746 -2.10856 -0.77926 -0.713767 -0.622504 -0.423737 
<VARIANCE> 19
9.94026 11.6419 8.33437 11.2529 11.4682 19.2374 24.6427 16.2099 16.954 15.9997 15.3836 14.7504 13.1624 10.5621 7.55206 7.59563 4.13755 2.99749 1.55656 
<GCONST> 9.06337e+1
<MIXTURE> 10 0.0584448
<MEAN> 19
-9.25838 -2.23217 -6.17499 -4.59641 -9.1744 -5.25375 -5.82366 -5.66253 -3.82909 -5.41639 -5.13867 -1.62784 -6.4129 0.0759441 -3.91898 0.735833 -0.67374 0.214065 -0.465112 
<VARIANCE> 19
1.93555 2.8819 3.97622 4.8144 5.3642 6.0573 7.32441 7.24597 6.86846 7.06509 6.83135 6.38027 5.93821 6.13169 5.48721 4.50847 3.13487 2.14909 1.24833 
<GCONST> 2.95047e+1
<MIXTURE> 11 0.0126155
<MEAN> 19
-2.09327 -3.00278 -8.92196 -9.588 -11.6373 -4.59744 -10.523 -11.7602 -2.42997 2.28736 2.41243 -1.34911 -7.14229 -0.956509 -3.59219 -0.282197 -1.95998 -0.898616 -1.153 
<VARIANCE> 19
9.35711 11.8362 15.1498 17.7383 24.7169 27.7665 18.8412 22.5689 20.1731 21.5746 23.1666 33.8168 11.849 16.2859 10.8602 10.8145 4.0884 2.7873 1.76482 
<GCONST> 1.34988e+1
<MIXTURE> 12 0.0167696
<MEAN> 19
-14.8273 -0.0558122 0.158278 -8.83741 -5.32805 -0.919817 -11.5661 -2.98505 -3.50493 -5.72867 -2.95925 -3.54861 -2.877 -0.741229 -2.51707 -0.763734 -0.210268 -0.478662 -0.519401 
<VARIANCE> 19
12.6584 12.4868 11.8092 12.5592 21.0392 21.0394 18.452 26.8541 22.1204 20.0065 20.3276 18.1073 13.6634 11.4877 9.24216 9.80613 4.55435 3.21995 1.72478 
<GCONST> 3.01372e+1
<MIXTURE> 13 0.0393882
<MEAN> 19
-8.45103 -1.45603 -4.87196 -3.27149 -7.92852 -4.47873 -5.68569 -4.86782 -0.942779 -0.0536021 0.220574 1.40069 -5.14238 -0.560779 -4.79208 -0.41217 -1.29662 -0.188218 -0.579967 
<VARIANCE> 19
4.23245 5.30141 6.01445 7.49343 8.65 10.183 9.62687 9.12676 9.08792 9.08958 8.29978 8.48731 8.36072 6.70472 6.44011 5.27884 3.08832 2.16663 1.16039 
<GCONST> 6.73848e+1
<MIXTURE> 14 0.0166557
<MEAN> 19
-15.2536 4.37036 -9.48861 -1.38689 -6.43448 -7.9091 -3.35739 -8.6392 -2.94233 -5.07273 -3.37916 -3.01091 -2.30299 -0.975517 -2.18795 -1.33038 -0.248373 -0.525869 -0.4645 
<VARIANCE> 19
7.463 8.7292 9.40801 17.5382 24.481 26.105 20.7749 17.1324 17.3739 18.4387 17.1277 16.6336 11.6868 10.719 7.10838 6.5057 4.2633 2.67594 1.48179 
<GCONST> 2.18531e+1
<MIXTURE> 15 0.0282655
<MEAN> 19
-6.47226 -2.83422 -4.53769 -2.24837 -7.38158 -3.0671 -1.62176 2.81551 5.04193 -0.999343 -4.96186 -1.16527 -3.97368 0.610786 -3.81685 0.957919 -0.893428 -0.564353 -0.756949 
<VARIANCE> 19
7.55406 11.4075 10.3378 12.1266 15.4499 15.0644 11.9575 12.4282 14.6673 16.5345 15.3995 13.4482 13.138 9.45346 8.31416 6.0035 4.00666 3.08008 1.75573 
<GCONST> 2.52069e+1
<MIXTURE> 16 0.0115604
<MEAN> 19
-2.02685 -6.80955 -11.4306 -10.8195 -14.2281 -1.68691 -3.46393 -5.34247 3.7006 3.8103 -1.17274 -7.26811 -10.5454 -1.82596 -1.68224 0.669986 -0.73305 0.228802 -0.53179 
<VARIANCE> 19
12.0188 20.2445 17.9954 25.9589 28.2131 22.3712 17.2839 18.0168 16.9722 24.2436 20.3784 24.806 18.0535 20.3766 8.72344 7.62389 6.14513 3.40882 1.82407 
<GCONST> 4.34381e+1
<MIXTURE> 17 0.00886451
<MEAN> 19
-6.49511 -9.58743 -6.56 -10.4116 -14.1584 -10.9732 4.21964 1.46441 -5.52459 -7.24118 -8.19192 -2.23329 -4.71587 -2.07044 -2.66028 0.802228 -3.36019 -0.768111 -0.733799 
<VARIANCE> 19
7.26445 21.3972 16.0137 28.8007 38.5253 50.7772 74.2781 18.7645 44.9839 23.8782 37.7331 24.9663 25.8718 23.215 19.6239 17.3643 9.75227 4.09764 3.40489 
<GCONST> 5.50787e+1
<MIXTURE> 18 0.029909
<MEAN> 19
-8.79243 -1.42797 -4.83354 -3.71384 -8.65051 -5.78417 -8.10967 -9.17414 -7.79909 -9.00052 -8.64903 -4.58141 -7.61709 -1.38044 -5.13168 -0.681922 -1.37589 -0.131807 -0.562845 
<VARIANCE> 19
5.55876 8.10103 6.8263 7.79434 8.74959 9.30241 10.9157 11.6988 9.56618 8.48251 9.59686 8.99322 8.24195 8.56719 7.0869 5.72611 3.85282 2.48483 1.39596 
<GCONST> 6.6788e+1
<MIXTURE> 19 0.01389
<MEAN> 19
-4.46329 -7.33671 -4.84676 -2.01761 -16.1673 -13.8796 -9.49706 -0.837124 5.54516 -2.27176 -0.25814 2.55011 -8.8431 -3.26487 -3.29475 -2.50847 -2.97352 0.550775 -0.584952 
<VARIANCE> 19
5.32885 11.9281 16.0229 27.6125 25.8611 27.086 33.1417 29.9728 37.5112 28.9052 31.0237 20.4675 28.2184 18.3483 14.3672 12.7439 7.05379 3.31021 1.87693 
<GCONST> 5.59718e+1
<MIXTURE> 20 0.039093
<MEAN> 19
-9.02052 -1.20947 -4.20369 -1.43918 -4.7058 -1.28469 -3.23666 -4.18893 -3.29231 -6.79123 -9.06497 -4.98259 -6.91837 -0.284214 -3.72998 0.447665 -0.82748 0.0392843 -0.386875 
<VARIANCE> 19
2.81811 6.836 5.33618 6.94638 7.44332 7.90082 8.25782 8.88677 9.58277 8.0856 7.64706 8.25444 8.69317 8.33449 7.33919 5.25383 3.44272 2.25747 1.28146 
<GCONST> 4.19367e+1
<MIXTURE> 21 0.0481341
<MEAN> 19
-8.99008 -1.76586 -4.98311 -3.56863 -7.57851 -3.62589 -4.75055 -4.14345 -1.44332 -2.89939 -3.27887 1.66938 -1.47395 2.86975 -2.98547 0.559916 -1.07113 -0.297472 -0.776432 
<VARIANCE> 19
2.8976 4.58443 5.74636 6.70192 7.4155 6.90428 7.73422 7.54552 8.05899 7.54788 7.09029 7.46765 6.42965 6.1248 6.19828 4.55966 2.99703 2.03955 1.25792 
<GCONST> 4.21303e+1
<MIXTURE> 22 0.0360122
<MEAN> 19
-7.88427 -1.21981 -4.54923 -2.1968 -4.87944 -2.11974 -6.96004 -5.79143 1.55035 1.33928 -2.75598 -1.46599 -4.5714 2.02634 -2.79264 0.694577 -1.36504 -0.26539 -0.583087 
<VARIANCE> 19
4.41596 5.67295 6.45418 8.36655 8.02365 8.03982 8.47122 8.58889 8.98018 10.089 9.75582 9.29098 9.5403 7.67247 6.60091 4.89859 3.48075 2.06979 1.39347 
<GCONST> 1.23894e+1
<MIXTURE> 23 0.0455404
<MEAN> 19
-8.73197 -1.27718 -4.55488 -3.04112 -8.01262 -5.83225 -8.96331 -9.81831 -4.96668 -2.64094 -2.27292 0.521995 -3.08997 2.55542 -3.04799 0.327879 -1.06549 -0.147587 -0.553304 
<VARIANCE> 19
3.53158 4.61995 6.4677 6.49166 7.5052 9.17073 8.27474 7.51124 8.66596 8.13505 8.03495 9.65357 8.26799 6.7122 6.30625 5.02107 3.43527 2.34089 1.39653 
<GCONST> 3.16239e+1
<MIXTURE> 24 0.0539709
<MEAN> 19
-9.06785 -1.54666 -4.59355 -1.90411 -4.94043 -0.289495 -2.42945 -4.78315 -3.18958 -3.87057 -4.15236 -1.08247 -5.01034 0.840803 -3.81516 0.291102 -1.01539 -0.124191 -0.592466 
<VARIANCE> 19
2.02574 4.06538 4.66735 5.68131 6.35337 6.03178 6.40483 7.82104 8.01964 7.86328 7.14519 7.8375 7.34664 7.06858 5.8072 4.66088 3.04416 2.18863 1.22782 
<GCONST> 1.70218e+1
<MIXTURE> 25 0.019151
<MEAN> 19
-13.9697 1.29378 -4.26867 -6.90404 -1.83438 -7.86196 -6.89178 -4.53501 -7.67202 -3.91028 -6.5933 -3.74365 -2.06901 -2.00375 -1.92913 -0.221871 -0.512371 -0.242994 -0.320739 
<VARIANCE> 19
6.31384 9.5899 6.88938 11.3961 11.1091 12.9221 14.5493 12.3849 12.0716 16.4433 11.7583 14.0002 10.2173 8.1626 7.15169 5.59749 3.86466 2.56308 1.45936 
<GCONST> 1.93921e+1
<MIXTURE> 26 0.0502843
<MEAN> 19
-8.91405 -1.01703 -3.84669 -1.04035 -4.95915 -2.71708 -6.8184 -9.05621 -6.19116 -5.95552 -4.80755 -0.777359 -5.38446 0.024523 -4.48401 -0.0859454 -1.00671 0.0744752 -0.399304 
<VARIANCE> 19
2.41066 4.10074 4.38733 5.41374 6.3209 6.46663 7.05655 7.24343 8.33209 7.98415 7.22465 7.75905 7.20201 6.68133 6.11968 4.29595 3.12027 2.03125 1.17985 
<GCONST> 1.73055e+1
<MIXTURE> 27 0.0327516
<MEAN> 19
-6.67513 4.15617 -0.508042 0.87122 -2.4392 -0.27337 -1.89235 -1.90345 -0.213162 -0.741875 -1.87744 -0.767553 -2.90348 0.206716 -2.20302 -0.211767 -0.902906 -0.499274 -0.603439 
<VARIANCE> 19
5.11922 10.249 7.0598 8.92489 9.41092 10.0059 9.60909 10.5862 10.9308 11.584 11.7613 13.1774 11.0915 10.5998 7.16251 4.57898 3.20357 2.265 1.37466 
<GCONST> 2.39002e+1
<MIXTURE> 28 0.025894
<MEAN> 19
-6.27349 -0.188801 -4.84384 -5.05225 -11.2735 -9.67877 -11.4034 -8.96357 -3.55687 -3.97637 -6.47147 -4.04416 -6.07347 -0.752017 -4.97174 -0.959779 -1.54918 -0.202988 -0.499484 
<VARIANCE> 19
11.7339 10.5459 10.9747 11.8299 12.0085 10.7521 12.0543 15.4865 13.2703 11.0406 13.0447 12.7475 11.8609 14.9968 11.7948 8.99139 6.1727 3.66093 2.13751 
<GCONST> 8.59641e+1
<MIXTURE> 29 0.0185051
<MEAN> 19
-5.5491 -1.63197 -5.72041 -3.58302 -8.29469 -8.96681 -12.9016 -7.81824 3.47651 4.24691 -1.06322 -0.213045 -2.53957 1.83676 -3.87139 -1.27625 -2.13019 -0.488997 -0.549154 
<VARIANCE> 19
8.48323 11.7063 12.2711 18.1905 26.6337 23.4297 16.1719 18.7561 19.6952 17.1762 19.4355 19.6444 14.5871 15.246 8.75194 8.04766 4.23156 2.83904 1.66591 
<GCONST> 1.69884e+1
<MIXTURE> 30 0.0139983
<MEAN> 19
-1.44058 -0.771108 -9.57248 -12.907 -15.2566 -4.57793 -3.60755 -4.62566 -2.31284 -4.95383 -3.62673 0.352856 -5.67235 -2.10116 -5.06452 -1.11488 -1.96349 0.344243 -0.410469 
<VARIANCE> 19
10.438 16.1278 14.0042 22.7394 25.691 17.6155 21.2488 17.6491 28.1898 19.9377 19.6117 27.816 21.7236 15.3807 11.244 8.29075 4.99635 3.49485 1.89792 
<GCONST> 2.87954e+1
<MIXTURE> 31 0.0104045
<MEAN> 19
-4.79128 -13.3774 -2.43393 0.735628 -24.3932 -12.1919 -5.17327 -0.88679 10.0634 -0.110073 -6.42023 -1.9063 -4.69875 -2.57447 -4.38996 -1.99779 -0.68475 0.933231 -0.870388 
<VARIANCE> 19
3.08917 15.6432 23.5382 17.2916 25.3998 28.3022 29.8928 26.9364 36.143 32.9057 25.2085 37.9561 20.9165 16.7871 12.6962 7.9845 7.28552 5.16172 2.0366 
<GCONST> 3.53183e+1
<MIXTURE> 32 0.0214477
<MEAN> 19
-8.06006 -2.93335 -0.341164 -0.870281 -11.9967 -8.17784 -7.72903 -6.56821 -4.46793 -6.36131 -2.78277 3.28561 -2.98639 0.0255031 -3.35981 0.882276 -1.46161 -0.990773 -0.760293 
<VARIANCE> 19
4.88549 9.58584 17.5454 12.4277 25.6534 14.5392 12.961 18.6926 16.6499 13.2677 14.2692 10.1252 12.3779 9.35136 8.69123 6.0847 3.74943 2.65144 1.57324 
<GCONST> 2.81955e+1
<MIXTURE> 33 0.0100424
<MEAN> 19
-4.91247 -8.85835 -12.2566 -13.1985 -5.29849 -2.03097 -7.68314 -2.27297 -0.736379 -8.66945 -8.22091 -5.55393 -3.26813 -1.49153 -4.2315 -0.526159 -2.87676 -0.329244 -1.02335 
<VARIANCE> 19
8.94238 16.955 10.8345 25.6684 32.003 39.6934 27.3002 34.27 60.6203 38.3478 23.9297 25.0786 16.7169 25.8598 12.9931 9.5107 8.19785 5.89113 2.85781 
<GCONST> 5.15449e+1
<MIXTURE> 34 0.0420488
<MEAN> 19
-9.1648 -1.86379 -5.15987 -3.3259 -7.05112 -3.53668 -6.90118 -7.39703 -2.20553 -2.3154 -5.88979 -4.70685 -7.6429 -0.802896 -4.77168 -0.0883379 -1.15572 -0.0407672 -0.425879 
<VARIANCE> 19
2.35409 4.67625 5.6952 6.05721 6.51886 7.62838 7.72877 8.20521 7.60205 6.501 8.15197 7.11493 7.40985 7.25968 7.00334 4.88461 3.21862 2.1865 1.21418 
<GCONST> 5.39778e+1
<MIXTURE> 35 0.0348644
<MEAN> 19
-11.2713 -6.1895 -2.00419 -0.479731 -9.29108 -4.83576 -1.82087 -4.03049 -6.47963 -4.35944 -2.77317 -3.16338 -4.39242 -0.616201 -2.08806 -0.161531 -0.91414 -0.453565 -0.487336 
<VARIANCE> 19
9.99566 11.0744 15.5014 11.9243 17.9289 17.359 12.4817 17.8777 15.6493 18.0892 14.7555 13.1696 14.4145 11.6585 9.20657 7.65716 4.57651 3.08495 1.65867 
<GCONST> 2.16865e+1
<STATE> 5
<NUMMIXES> 10
<MIXTURE> 1 0.0678147
<MEAN> 19
-2.0707 -6.63271 -9.79677 -4.28743 -10.8486 -9.54209 -18.7738 -8.15094 9.74405 2.19675 -3.0415 3.70278 -8.14776 -4.08174 -2.25993 -0.0188373 -3.0943 -0.801168 -1.40266 
<VARIANCE> 19
2.16874 8.4161 10.2547 17.1729 9.27699 17.1571 23.5404 35.5164 36.2797 20.3579 21.56 16.8498 16.8832 9.92917 9.89416 11.3727 5.10517 2.47055 1.57009 
<GCONST> 4.28702e+1
<MIXTURE> 2 0.0752052
<MEAN> 19
-6.83241 -5.51646 1.60342 1.8372 -18.6797 -13.8808 -6.73286 -5.48869 -3.17135 -5.29724 -0.579157 4.80122 -4.5481 -2.11797 -3.08827 -0.747562 -2.17765 -1.08774 -1.45861 
<VARIANCE> 19
6.55511 7.79623 16.6953 13.9859 30.7361 27.9715 22.9341 27.9149 33.6292 23.437 18.3868 15.4677 20.0787 16.2414 11.2758 11.3894 3.82425 4.72007 1.28013 
<GCONST> 1.42473e+1
<MIXTURE> 3 0.0856493
<MEAN> 19
-14.9432 2.02921 -5.87936 -5.52607 -2.62681 -10.1749 -4.46878 -5.76227 -5.41807 -2.86069 -5.15977 -1.21558 -1.19849 -1.69589 -3.08179 -1.70997 0.28316 -0.655235 -0.481967 
<VARIANCE> 19
9.28269 13.1294 15.8083 14.0862 20.1079 15.2962 19.1802 28.3716 20.5 20.1685 14.0302 13.5078 12.4195 13.7778 6.8692 6.07349 4.28475 4.01105 1.49992 
<GCONST> 6.55005e+1
<MIXTURE> 4 0.0594293
<MEAN> 19
-2.97449 -2.30082 -8.46592 -6.14443 -3.49895 4.88154 -1.06269 -6.5544 1.38314 2.7041 -0.598193 0.687584 -5.3047 0.829253 -2.8399 2.36783 -1.12725 -0.896156 -1.27391 
<VARIANCE> 19
3.89359 11.6277 19.9256 29.7546 8.72706 28.389 21.1775 25.264 26.9783 26.6337 28.3829 19.1573 13.1898 10.796 11.4245 7.35671 5.00107 3.10957 1.83777 
<GCONST> 4.75466e+1
<MIXTURE> 5 0.0565577
<MEAN> 19
-5.06581 -10.1805 -1.55913 -0.502411 -23.9946 -12.8762 -10.5995 -8.54019 8.85466 2.97114 -6.30821 -0.0482095 -4.75043 -3.08048 -4.82281 -3.254 -3.43844 0.701827 -0.682262 
<VARIANCE> 19
3.09388 9.09067 13.254 12.7454 18.0273 11.6885 21.1065 31.6662 37.0729 25.6297 21.9719 29.9898 16.7734 20.1846 19.8867 8.19225 9.39191 4.81489 1.48723 
<GCONST> 1.55407e+1
<MIXTURE> 6 0.224219
<MEAN> 19
-8.89725 -1.96565 -4.21544 -2.83383 -7.604 -4.77292 -5.98213 -5.88528 -4.57232 -5.2057 -4.68789 -1.42662 -5.12204 0.0836897 -3.30986 -0.055318 -0.358541 -0.204867 -0.640456 
<VARIANCE> 19
10.957 6.68308 16.8621 11.1481 12.1235 16.6932 12.5361 15.0112 14.4596 12.8617 14.684 11.9926 11.374 11.5991 8.72258 6.38421 4.0292 2.31455 1.24368 
<GCONST> 1.46291e+1
<MIXTURE> 7 0.128891
<MEAN> 19
-6.23868 -1.58522 -5.19072 -4.04194 -12.5734 -10.5127 -8.33611 -6.1784 -1.50895 0.3866 -0.147809 0.954444 -4.71629 -0.0682019 -4.32453 -1.43239 -1.49703 -0.357245 -0.849812 
<VARIANCE> 19
8.86091 7.11008 10.7318 14.1769 14.5238 23.2375 20.768 29.3775 15.4083 19.4633 14.3176 17.596 16.8747 11.8872 6.73458 6.78367 3.42358 3.09899 1.72012 
<GCONST> 2.49395e+1
<MIXTURE> 8 0.0609692
<MEAN> 19
-2.64801 -10.9175 -6.26444 -4.76802 -19.8265 -6.62586 -6.65708 -0.727002 11.372 2.5257 -4.42213 -5.6041 -10.4086 -1.04377 -2.77972 -1.54902 -1.42762 1.1349 0.205729 
<VARIANCE> 19
4.70779 13.9152 15.6298 8.96478 22.4506 27.7292 26.7182 33.2425 21.6762 34.1063 36.2677 34.6997 33.4698 9.62102 15.1531 7.53015 5.14335 3.73182 1.79291 
<GCONST> 5.9708e+1
<MIXTURE> 9 0.167898
<MEAN> 19
-6.49762 -0.149543 -1.36801 0.148346 -4.99561 -3.3697 -3.57327 -0.1271 2.98009 0.38142 -0.70849 2.24322 -1.75962 0.940257 -3.78427 0.293224 -0.728202 -0.722738 -0.885259 
<VARIANCE> 19
9.72035 8.9791 17.1883 16.3945 17.8222 17.6313 20.9316 26.1547 20.5406 17.8669 16.8499 20.2097 14.5852 11.8512 8.78456 7.24103 4.17694 3.21755 1.81209 
<GCONST> 1.41586e+1
<MIXTURE> 10 0.0733663
<MEAN> 19
-4.31741 -7.44131 -10.2675 -11.9467 -19.636 -1.37913 0.219307 -6.15758 1.71255 4.58386 -2.33581 -6.14008 -11.9948 -3.98985 -2.02653 0.589335 0.438151 0.525245 -0.806106 
<VARIANCE> 19
4.21482 13.527 4.11552 7.40335 10.4366 15.8819 22.3562 18.1452 27.6968 21.5044 28.7364 16.2905 12.1259 9.46845 15.0043 6.01894 4.05684 4.66699 1.34691 
<GCONST> 8.61137e+1
<STATE> 6
<NUMMIXES> 10
<MIXTURE> 1 0.165309
<MEAN> 19
-7.37863 5.97206 -1.12107 -1.85098 -5.66376 -5.66494 -6.69367 -5.25625 -4.31357 -4.42511 -5.14447 -4.18533 -3.72001 -1.88547 -1.95316 -0.680887 -0.458814 -0.215975 -0.128837 
<VARIANCE> 19
3.45361 3.87308 3.68437 5.46429 6.85734 6.20779 7.33612 10.1944 11.5147 10.7228 8.59282 7.98169 8.12921 7.18485 6.39895 4.74335 3.20071 2.17524 1.28299 
<GCONST> 1.14967e+1
<MIXTURE> 2 0.139594
<MEAN> 19
-7.58126 5.9861 -0.325776 0.170383 -2.43333 -1.61363 -3.81183 -4.99544 -5.7411 -6.11846 -6.24529 -4.429 -3.63463 -1.57806 -1.45765 -0.0884358 -0.10602 -0.0752334 -0.155843 
<VARIANCE> 19
1.45755 3.43695 3.57407 4.9237 5.74956 6.4534 7.62914 8.52769 10.0471 8.99374 8.10092 7.42838 7.44228 6.62286 5.50472 4.07543 3.00337 2.11741 1.29606 
<GCONST> 1.0546e+1
<MIXTURE> 3 0.0698766
<MEAN> 19
-5.67608 6.09298 0.0875854 -0.294438 -4.28542 -4.24193 -6.05748 -3.48249 1.19122 1.99356 1.14086 2.14519 0.0920756 0.443987 -2.04398 -0.886589 -1.43899 -0.827082 -0.605968 
<VARIANCE> 19
6.18149 11.3355 10.2913 11.5538 14.123 14.2393 12.6606 14.7251 15.5648 11.4045 11.3629 13.2899 10.1511 10.2673 6.32125 4.75519 3.20612 2.22416 1.22878 
<GCONST> 2.29853e+1
<MIXTURE> 4 0.154198
<MEAN> 19
-6.79944 6.35703 0.0955381 0.568578 -2.2384 -0.937911 -1.57142 -1.10544 -0.906032 -1.67697 -2.71866 -2.12381 -2.67932 -1.23636 -1.78593 -0.533249 -0.571773 -0.448279 -0.370872 
<VARIANCE> 19
2.88056 4.40927 5.35786 7.45988 8.65283 9.87694 8.2972 8.95483 8.99895 8.83421 10.2457 9.67317 9.53197 7.49734 6.60827 4.6634 3.02702 2.21537 1.22791 
<GCONST> 4.60588e+1
<MIXTURE> 5 0.121487
<MEAN> 19
-9.44589 -1.43762 -4.74659 -2.84053 -6.31151 -3.49497 -5.31902 -6.0664 -4.48697 -6.01587 -6.42367 -2.57107 -5.47661 0.320141 -3.82914 0.359883 -0.710934 0.0489198 -0.430744 
<VARIANCE> 19
5.83324 7.24277 6.34588 11.9485 9.64899 10.965 12.0217 11.8883 12.1159 10.6282 9.97735 11.7546 10.5827 9.31513 7.67766 4.92023 3.66805 2.42962 1.34943 
<GCONST> 3.27614e+1
<MIXTURE> 6 0.0198907
<MEAN> 19
-3.69444 -8.24366 -6.07975 -6.09877 -18.6148 -7.25214 -5.96354 -3.27413 6.33937 3.71016 -2.71982 -6.11323 -9.97795 -0.821313 -4.53588 -2.52881 -1.50227 0.811411 -0.599555 
<VARIANCE> 19
1.68033 16.7061 14.2114 20.8901 22.217 39.183 32.9663 27.4338 36.3146 41.2428 20.5285 21.1474 26.9686 15.1656 10.34 14.3856 6.87105 3.80781 1.25173 
<GCONST> 8.49974e+1
<MIXTURE> 7 0.163708
<MEAN> 19
-7.47741 5.90725 -0.186556 0.030698 -3.46596 -3.35528 -5.48113 -5.72564 -4.97504 -3.26391 -1.94016 -0.236201 -0.992264 -0.450459 -1.56697 -0.636018 -0.664936 -0.403058 -0.260894 
<VARIANCE> 19
1.64262 4.54379 4.68691 5.17879 6.86924 7.53366 7.86137 8.5754 7.53895 8.18048 7.59458 7.13387 7.73342 7.82993 6.33823 4.45638 3.10067 2.06811 1.25495 
<GCONST> 2.90661e+1
<MIXTURE> 8 0.0833576
<MEAN> 19
-7.90494 -0.761088 -4.51481 -2.02469 -4.75129 -1.21408 -2.7018 -2.3835 0.855217 -0.75961 -3.34437 -1.07802 -4.42472 1.10517 -2.77841 0.705293 -1.04039 -0.320737 -0.634188 
<VARIANCE> 19
8.30102 9.63893 9.18276 12.8546 10.1867 15.8408 12.4163 16.0856 12.8949 13.86 14.3673 11.8629 11.9074 9.21391 8.48505 6.04279 3.45379 2.52641 1.29292 
<GCONST> 5.88446e+1
<MIXTURE> 9 0.0688226
<MEAN> 19
-8.97017 -1.23784 -5.21298 -3.73262 -8.7021 -7.04455 -9.01452 -8.0459 -2.4298 -1.62382 -2.65593 -0.586766 -4.6495 1.39274 -3.78008 -0.480933 -1.16578 -0.156163 -0.58142 
<VARIANCE> 19
9.39474 9.24116 9.29056 9.22409 14.0882 16.3559 16.422 12.216 16.3752 14.64 14.3838 14.6999 12.9984 9.86674 7.6237 6.03328 3.8187 2.6203 1.45889 
<GCONST> 1.50123e+1
<MIXTURE> 10 0.0137548
<MEAN> 19
-5.17843 -5.69073 -1.59344 -0.0956558 -20.7544 -16.5171 -6.99079 0.082391 -0.0519344 -5.61795 3.59178 1.09963 -7.994 -0.911555 -5.34199 -3.97646 -1.50092 0.24506 -1.67441 
<VARIANCE> 19
2.55275 11.4422 14.7297 11.7082 18.8512 17.0321 22.0054 34.0085 44.364 30.1668 31.9775 18.0548 21.793 13.7815 18.9447 7.80538 5.16872 2.65995 1.72547 
<GCONST> 9.85329e+1
<STATE> 7
<NUMMIXES> 10
<MIXTURE> 1 0.182469
<MEAN> 19
-8.59118 -1.48187 -4.39958 -2.68517 -9.19361 -6.51143 -7.92672 -8.1229 -5.79733 -5.79456 -4.50343 -2.08691 -5.58707 -0.0301164 -4.12114 -0.957403 -1.23972 -0.259891 -0.759726 
<VARIANCE> 19
7.18724 7.98073 10.9057 10.9502 12.9417 13.3831 11.4322 10.4348 10.7305 11.4541 13.2449 12.7939 11.3162 9.17539 8.47856 6.56813 3.93167 2.33875 1.44806 
<GCONST> 2.26938e+1
<MIXTURE> 2 0.0888469
<MEAN> 19
-3.78224 -10.2668 -9.44807 -2.86776 -17.7154 -12.2732 -7.78341 -2.30868 9.18776 3.68409 -3.76664 -5.68669 -10.3363 -2.27938 -1.79198 -1.81107 -2.77663 0.287102 0.141926 
<VARIANCE> 19
1.91932 16.8624 14.9054 17.2744 22.0083 24.8313 27.3645 22.9901 23.3008 22.5793 24.9564 27.3249 21.8669 13.4979 11.9121 10.6094 7.46745 2.63566 1.65404 
<GCONST> 1.24822e+1
<MIXTURE> 3 0.0818897
<MEAN> 19
-3.017 -4.63137 -10.2325 -10.9817 -18.4916 -5.08685 -1.13255 -3.09936 1.17313 -1.05774 -2.00038 -1.80477 -10.3376 -3.71324 -4.28774 -1.56439 -1.29594 0.867829 -0.578217 
<VARIANCE> 19
4.60888 12.5573 12.6826 13.171 21.1452 15.8794 24.7668 19.5538 20.7935 17.016 17.6089 27.4719 15.3527 10.4248 7.46156 8.76739 4.60339 2.90268 1.27936 
<GCONST> 4.81607e+1
<MIXTURE> 4 0.107829
<MEAN> 19
-5.44275 -3.58339 -6.53368 -1.97121 -12.2852 -13.5481 -12.7607 -7.10884 2.88832 0.890161 -2.28336 -0.923997 -4.47019 0.631927 -4.99497 -2.46524 -2.12235 -0.646286 -1.13613 
<VARIANCE> 19
4.91652 11.8312 12.0673 18.1894 13.7363 15.8689 27.7111 24.2707 20.7908 17.2481 14.9403 29.4302 14.2045 17.5369 10.6648 8.78718 4.13209 3.5596 1.69249 
<GCONST> 1.7152e+1
<MIXTURE> 5 0.0628863
<MEAN> 19
-15.9399 6.61366 -12.6016 1.66159 -9.36058 -5.85018 -3.97775 -7.01733 -1.15143 -4.75354 -2.18292 -3.94295 -2.52003 -1.2668 -2.27781 -1.41343 0.629477 -1.42618 0.0488705 
<VARIANCE> 19
7.83361 7.31583 8.43116 16.6925 17.1038 28.1427 28.2466 24.1038 12.8707 19.9379 15.5619 18.735 10.503 9.6596 7.25074 5.60183 3.57701 2.47579 1.41934 
<GCONST> 1.02435e+1
<MIXTURE> 6 0.0539451
<MEAN> 19
-7.26039 -6.98059 4.83059 2.94483 -22.9395 -13.0557 -8.0036 -9.89849 -3.34717 -8.75071 -5.08926 5.15551 -3.51098 -2.84378 -3.17122 0.386668 -1.66679 -1.24507 -2.1084 
<VARIANCE> 19
2.15515 7.37626 10.8454 9.57467 19.8316 18.7346 15.7911 15.0629 19.2509 20.874 15.7712 16.5556 12.0932 9.60062 11.2134 8.43578 3.99127 4.08678 1.44882 
<GCONST> 3.97269e+1
<MIXTURE> 7 0.185082
<MEAN> 19
-9.07839 -1.856 -5.20249 -2.70866 -7.06313 -3.80863 -4.24707 -3.93539 -1.7252 -3.30793 -4.41784 -2.00895 -5.03762 0.416518 -3.81266 0.0596409 -0.92611 -0.217068 -0.593615 
<VARIANCE> 19
5.54378 6.0271 6.93887 8.13024 9.94362 11.3856 10.0608 13.2904 12.4748 11.736 12.774 10.8287 10.6646 7.59193 6.86414 4.89799 3.39807 2.09645 1.37601 
<GCONST> 1.54196e+1
<MIXTURE> 8 0.0951899
<MEAN> 19
-5.43287 -4.59064 -3.63404 -0.0789491 -16.6416 -15.819 -4.85711 -2.69084 -4.84343 -3.94666 1.07775 -0.636932 -9.04293 -1.63343 -5.01701 -2.7622 -2.69833 -0.574812 -1.43181 
<VARIANCE> 19
3.38652 9.93555 12.7213 15.4417 16.3551 31.8254 18.5397 21.2936 28.3775 16.2698 15.4603 23.7806 16.9228 14.2221 8.94912 6.52222 4.95106 3.38923 1.22572 
<GCONST> 6.66123e+1
<MIXTURE> 9 0.0858779
<MEAN> 19
-5.26269 -10.1518 -1.30657 1.99837 -24.6261 -17.3371 -6.23272 -1.92502 8.49417 -0.483498 -5.81462 -0.817074 -2.64384 -2.71472 -7.29446 -3.50666 -0.231183 0.62897 -1.58703 
<VARIANCE> 19
2.1199 9.15271 14.4643 13.6571 23.6847 12.3538 27.3035 25.2007 18.3924 19.7863 25.4693 19.5578 18.49 20.7946 10.5577 9.20067 5.56095 3.62087 1.75713 
<GCONST> 1.84842e+1
<MIXTURE> 10 0.0559849
<MEAN> 19
-15.4252 2.1591 -4.57241 -7.15932 -3.29543 -8.4249 -4.89264 -3.79987 -7.31169 -2.11019 -3.8012 -3.74341 -2.63959 -0.599869 -2.83197 -2.46333 0.672394 -0.829842 -0.618224 
<VARIANCE> 19
8.59099 13.2614 18.8098 17.4611 19.5101 26.8364 19.0673 27.7556 21.5151 21.1797 23.1708 16.3962 11.0039 11.6062 8.28865 7.43021 6.22042 2.42321 1.85685 
<GCONST> 3.95156e+1
<STATE> 8
<NUMMIXES> 5
<MIXTURE> 1 0.0932037
<MEAN> 19
-15.6647 -1.99586 1.71133 0.144456 -10.5685 -5.19198 4.80121 -10.5575 -3.67796 -3.98235 -3.64138 -7.16678 -2.39195 -3.73198 -4.05284 -1.25779 -2.93457 -0.265301 -1.3048 
<VARIANCE> 19
31.5089 14.7097 23.7908 15.8918 40.8778 41.3762 19.238 18.2667 21.1375 33.7779 22.5882 25.5288 15.474 13.0937 14.6211 5.35377 5.90456 4.86483 2.23025 
<GCONST> 4.35699e+1
<MIXTURE> 2 0.360803
<MEAN> 19
-8.78828 -3.80344 -4.00466 -1.47807 -8.93757 -5.56413 -4.22712 -2.69785 -2.52045 -2.28095 -1.48838 -0.481592 -3.61856 0.00887004 -2.60564 0.273608 -1.19778 -0.593856 -0.63645 
<VARIANCE> 19
12.2884 13.0854 12.3157 15.9129 18.3551 20.7847 19.6725 25.9304 22.6209 21.772 24.2897 19.4625 15.0019 12.2663 10.4149 7.20293 4.08162 2.79006 1.58176 
<GCONST> 3.5506e+1
<MIXTURE> 3 0.263034
<MEAN> 19
-9.17033 -2.56907 -3.3457 -3.02429 -12.3278 -9.3104 -5.39275 -6.1566 -6.75336 -6.29628 -7.00524 -4.92839 -5.63866 -2.74003 -4.27044 -0.963478 -2.29676 -0.516332 -0.647982 
<VARIANCE> 19
7.74591 16.102 20.1571 15.832 24.5051 22.6184 20.033 31.2802 21.2113 14.5188 14.153 17.4467 12.2261 14.5609 14.5308 7.84512 4.81562 3.34532 2.50173 
<GCONST> 8.59822e+1
<MIXTURE> 4 0.123986
<MEAN> 19
-6.78987 -9.49598 -9.32344 -15.3708 -10.0281 -11.4976 5.07771 -1.97347 -0.199615 -9.72758 -7.84748 -3.60822 -5.19924 -0.633705 -4.54382 1.94705 -3.4825 -0.401377 -0.313527 
<VARIANCE> 19
5.42438 18.4984 37.0393 24.3881 34.5442 91.2221 30.1884 43.8156 57.4806 69.3852 36.9748 29.9666 21.7482 22.3335 20.1665 13.8428 6.19941 6.88722 2.47907 
<GCONST> 2.39617e+1
<MIXTURE> 5 0.158973
<MEAN> 19
-8.96513 -6.51235 -0.0886994 -4.212 -21.1909 -13.3615 -6.55215 -3.11097 -11.7449 -1.50068 0.612613 -2.06292 -0.318656 1.1501 -0.103 2.21178 -3.03045 -0.877344 -0.285453 
<VARIANCE> 19
5.96501 20.5664 22.8599 23.0574 30.8628 24.7762 33.6146 38.944 38.7263 24.6486 38.3336 57.3396 33.1416 34.6007 49.572 23.2979 13.586 9.63823 5.88189 
<GCONST> 1.3853e+1
<STATE> 9
<NUMMIXES> 10
<MIXTURE> 1 0.170043
<MEAN> 19
-9.18013 -1.21803 -4.02927 -2.82571 -7.54143 -4.00448 -5.28606 -5.77152 -5.04618 -6.25789 -6.48613 -3.31988 -4.94217 0.362094 -2.9703 -0.151075 -0.869617 0.142222 -0.449357 
<VARIANCE> 19
9.14226 14.045 11.8924 14.9776 14.9721 13.1649 15.4948 17.3539 12.471 11.7157 13.4821 10.425 10.995 9.48189 8.83284 5.8594 4.29137 2.71577 1.22684 
<GCONST> 1.92042e+1
<MIXTURE> 2 0.0804725
<MEAN> 19
-3.22139 -5.70484 -6.37987 -3.15045 -14.4588 -13.0824 -8.85779 1.80973 4.74615 -2.16721 -4.69774 -1.74011 -5.4601 1.35863 -4.19568 -1.5417 -0.766681 0.611091 -0.242886 
<VARIANCE> 19
16.6724 14.7179 18.7353 11.7981 31.1473 16.7206 25.4402 30.9663 23.4801 26.4263 20.885 15.8149 22.234 15.6927 10.9123 8.99833 6.32705 2.66761 1.60183 
<GCONST> 4.22444e+1
<MIXTURE> 3 0.0813079
<MEAN> 19
0.8995 -3.61567 -13.1242 -14.1209 -13.8464 -2.34661 -3.7657 -6.73024 -1.35745 1.99294 0.594983 -2.79142 -7.33506 -0.224505 -3.1292 0.835921 -0.895907 -0.578188 -0.52333 
<VARIANCE> 19
5.54331 16.3633 11.9132 13.0187 12.1452 17.412 28.1074 17.8557 17.9835 27.975 15.2129 41.7344 26.8558 15.253 7.21369 7.70913 4.0402 2.22538 1.40541 
<GCONST> 1.37278e+1
<MIXTURE> 4 0.0514716
<MEAN> 19
-16.7561 1.14722 2.25111 -8.34225 -8.82212 4.82353 -14.0153 -1.30402 0.100868 -7.6927 -0.384929 -5.10616 -2.2353 -0.357078 -0.841643 -3.05099 0.42453 -0.308149 -0.824171 
<VARIANCE> 19
14.6886 13.429 16.2198 20.5831 23.5711 12.8054 31.1772 35.7837 25.5345 25.4158 20.491 18.1513 17.0752 10.2716 6.12501 6.62328 4.80506 2.54408 2.12695 
<GCONST> 9.90262e+1
<MIXTURE> 5 0.166208
<MEAN> 19
-4.56624 1.21108 -2.165 -2.7535 -9.83548 -8.44871 -9.54616 -7.3639 -3.3237 -3.44535 -3.04802 -0.330639 -3.13704 2.83261 -3.24534 0.217946 -1.33445 -0.521011 -0.637124 
<VARIANCE> 19
11.4201 9.72668 15.967 16.9685 14.8882 12.4279 19.5084 15.0612 17.1904 19.5266 11.4081 17.7102 13.0161 10.3513 8.01607 5.946 3.91107 2.56094 1.82994 
<GCONST> 1.30609e+1
<MIXTURE> 6 0.0528452
<MEAN> 19
-2.65597 -5.54064 -2.83095 -8.69082 -12.3726 -8.9171 -17.3033 -5.93598 2.88982 0.894417 0.220921 -8.81718 -3.02804 5.89682 -4.77838 -3.32873 -0.729702 -0.401685 0.0353647 
<VARIANCE> 19
9.16231 17.1012 15.7766 22.7452 18.2734 25.4359 31.212 30.9721 38.5368 26.4081 31.9774 33.7844 21.21 19.7445 12.6842 14.9693 4.93064 3.02228 2.85157 
<GCONST> 9.38511e+1
<MIXTURE> 7 0.0725623
<MEAN> 19
-4.28841 -2.23714 5.09459 -1.62744 -16.9614 -11.4309 -10.678 -0.241435 -5.55551 -10.8918 0.61714 -1.62685 -5.02537 2.767 -3.50623 1.51084 0.210374 -1.45708 0.565033 
<VARIANCE> 19
5.26853 14.97 15.5311 23.8342 25.6961 19.9253 23.0824 32.5059 32.7886 13.4495 15.4875 14.8303 13.2733 14.1329 11.6058 5.67112 4.78395 2.33557 2.79315 
<GCONST> 4.37745e+1
<MIXTURE> 8 0.146032
<MEAN> 19
-7.2275 -0.278072 -3.52778 -2.31314 -5.70511 -2.14053 -3.99829 -3.18683 0.485988 -1.4223 -3.11177 -1.16003 -4.56409 1.18914 -3.8575 0.133165 -1.47801 -0.45239 -0.865439 
<VARIANCE> 19
7.01122 7.27339 8.74585 11.4198 11.5783 19.0758 13.4702 12.3521 12.123 11.083 12.0379 16.5912 12.0799 8.15538 6.89241 5.69723 3.37468 2.36269 1.42719 
<GCONST> 2.21103e+1
<MIXTURE> 9 0.0922091
<MEAN> 19
-17.985 5.40557 -3.97381 -9.17794 -2.78127 -5.50586 -10.9655 1.57887 -6.82534 -2.10818 -2.71682 -5.76908 -0.94596 -1.24114 -2.64928 -2.08577 0.641853 -0.757668 -1.06104 
<VARIANCE> 19
24.5329 14.1562 13.2768 13.469 21.0241 33.7078 33.5042 23.156 20.6724 21.7554 25.0379 18.2444 15.1716 13.6294 7.68455 7.21642 5.26226 2.83843 1.88523 
<GCONST> 2.26508e+1
<MIXTURE> 10 0.0868489
<MEAN> 19
-2.19901 -9.10604 -10.0762 -9.82632 -13.9703 -6.69277 -3.71058 2.02519 7.49582 1.24683 -6.06083 -9.40025 -6.28891 3.77968 -3.98258 -1.54851 -0.60101 0.127544 0.380681 
<VARIANCE> 19
12.1074 37.1828 13.8267 29.5444 35.8382 31.9187 25.9756 23.4487 30.5979 31.8064 19.5497 21.1774 16.9927 17.6452 10.9839 8.58797 6.03147 3.23007 2.07338 
<GCONST> 5.89835e+1
<STATE> 10
<NUMMIXES> 5
<MIXTURE> 1 0.159511
<MEAN> 19
-3.96467 -4.3572 -0.221894 -4.78292 -13.5893 -13.8677 -19.0477 -1.08114 -0.84742 -8.11437 -0.602289 -4.10829 -1.28566 1.63664 -3.2363 -0.235977 -0.330157 -1.71508 -0.839737 
<VARIANCE> 19
15.5189 11.9195 44.1921 24.4074 27.5841 28.8019 45.1175 37.9878 36.0551 39.8913 41.4307 34.5968 28.3147 17.0488 15.5452 10.155 13.4037 7.66286 2.03244 
<GCONST> 8.90989e+1
<MIXTURE> 2 0.148989
<MEAN> 19
-1.48352 -10.0124 -10.4331 -13.6179 -11.4007 -8.6728 -10.005 0.811759 5.55852 -1.8689 -4.35013 -9.0049 -5.75361 0.43901 -3.48235 0.501318 -1.96736 -1.73044 0.0942255 
<VARIANCE> 19
8.29066 16.7645 15.1718 29.0464 11.5394 24.9333 31.2954 34.3344 19.2636 22.0277 46.5011 35.1178 25.0708 27.4001 9.45151 6.57548 7.37514 4.5127 2.55553 
<GCONST> 4.76446e+1
<MIXTURE> 3 0.166319
<MEAN> 19
-1.72188 -6.75112 -10.2581 -16.0186 -12.67 -4.3846 -3.73465 -4.07294 -7.91019 -4.46637 -2.62008 -0.397119 -1.95565 -3.17184 -4.14711 0.418716 -3.5055 -0.465297 -0.668164 
<VARIANCE> 19
14.7466 45.6588 20.5238 26.4906 27.4031 29.2324 52.073 26.176 38.7599 34.5534 46.5529 27.4504 32.3555 21.985 20.1891 11.9416 6.23827 3.82497 2.06177 
<GCONST> 5.77171e+1
<MIXTURE> 4 0.356739
<MEAN> 19
-7.15143 -1.01512 -5.0049 -4.0835 -8.31059 -5.87372 -6.83755 -6.46518 -3.93551 -4.93042 -6.10475 -2.2612 -5.14309 -0.00572419 -4.32004 -0.0527165 -1.47336 -0.0597687 -0.749479 
<VARIANCE> 19
8.98792 7.32556 9.01009 13.4272 16.3693 14.7061 13.9052 15.3943 13.3386 13.6036 14.4152 11.5399 11.6895 12.3143 9.26862 5.96662 3.70623 2.39325 1.43566 
<GCONST> 1.25599e+1
<MIXTURE> 5 0.168442
<MEAN> 19
-12.0089 -0.278359 0.874413 -12.6358 -12.6988 -8.05783 -8.6877 -6.91234 -6.36709 0.999938 -8.14524 -2.60446 -0.843064 -5.46644 -3.54718 -2.80802 -2.77503 -0.542621 -1.30925 
<VARIANCE> 19
41.7637 16.069 26.767 38.166 32.1977 40.1276 31.9488 24.2032 33.6089 26.3743 25.771 20.3709 19.3694 10.2825 11.6172 8.80987 6.13636 4.11009 2.52107 
<GCONST> 4.13119e+1
<STATE> 11
<NUMMIXES> 5
<MIXTURE> 1 0.139266
<MEAN> 19
-8.75083 -4.03848 -6.34364 -8.58494 -12.6295 -10.5584 -10.413 -6.71236 -2.92346 -1.55792 -0.304097 2.39808 0.625692 0.719256 -4.49579 -2.01993 -2.82879 -1.25545 -1.1846 
<VARIANCE> 19
9.86649 19.8606 12.9172 16.3921 31.6672 18.5388 26.8815 23.2975 35.7627 40.1381 26.6786 31.9617 25.815 24.1369 30.1381 16.2982 5.80411 5.44404 3.77906 
<GCONST> 6.82405e+1
<MIXTURE> 2 0.0959976
<MEAN> 19
-7.91301 -2.33772 -1.3186 -10.8506 -18.8632 -9.83281 -8.44276 -11.4047 -7.2194 -8.21929 -9.78776 -3.08922 -5.13574 -0.809157 1.54313 3.76736 3.2295 2.91504 0.365344 
<VARIANCE> 19
7.72294 16.1295 22.0676 30.5123 39.7297 48.4406 38.1987 43.2591 14.3408 21.7561 20.7132 12.8976 25.8068 18.9496 20.6516 7.54731 9.25929 10.4503 4.40711 
<GCONST> 7.22666e+1
<MIXTURE> 3 0.429623
<MEAN> 19
-11.1787 0.309369 -5.80271 -3.22069 -8.24181 -4.71097 -5.63766 -7.81943 -5.14043 -5.07344 -5.67219 -2.79566 -3.84298 -1.02538 -3.00357 -0.66848 -1.00266 -0.362969 -0.617658 
<VARIANCE> 19
23.4882 22.5686 22.5954 17.7427 18.3308 15.4666 21.112 18.3468 20.8023 17.6475 14.6937 12.5737 11.0505 8.98961 8.72676 6.69721 3.91477 2.48908 1.37188 
<GCONST> 1.22852e+1
<MIXTURE> 4 0.109732
<MEAN> 19
-5.63893 -6.89537 -10.2353 -9.03713 -16.5129 -6.15249 -2.26839 -1.76221 -2.09616 -7.27178 -8.76419 -1.56806 -3.97993 -2.98196 -2.46458 0.900004 -1.95513 -0.831788 -0.504305 
<VARIANCE> 19
5.19878 8.73995 20.8432 6.52204 26.8851 18.2446 20.1509 28.3733 27.0948 25.4057 23.5489 15.1892 15.8758 17.1679 12.81 6.31428 5.34521 2.94542 2.53108 
<GCONST> 3.7469e+1
<MIXTURE> 5 0.225381
<MEAN> 19
-5.70727 -0.777037 -3.58205 -7.40836 -16.0689 -10.3754 -10.0592 -7.85171 -2.9834 -3.71192 -6.29968 -3.29608 -6.48789 -4.1015 -6.66378 -2.98825 -2.53545 -0.385828 -0.339149 
<VARIANCE> 19
4.39906 12.3215 11.3043 18.1869 18.6265 18.0184 20.8868 20.5747 21.4634 15.4898 13.8853 11.3606 10.8379 14.0475 8.03747 5.98217 4.48038 3.03717 3.16897 
<GCONST> 2.66072e+1
<TRANSP> 12
 0.000000e+00 1.432853e-01 2.509632e-01 3.881253e-04 4.811129e-03 1.559921e-02 8.159158e-04 5.083218e-01 1.333315e-02 1.654798e-02 4.593424e-02 0.000000e+00
 0.000000e+00 4.558475e-01 1.123173e-01 1.594236e-02 7.084671e-02 9.659408e-03 1.300432e-02 2.524780e-02 2.773815e-02 6.407100e-02 2.053213e-01 4.188958e-06
 0.000000e+00 1.148282e-01 5.466276e-01 1.118736e-02 5.450503e-02 7.539439e-03 3.744964e-02 7.514732e-02 3.015687e-02 2.693167e-02 9.562656e-02 2.236990e-07
 0.000000e+00 2.643495e-01 1.675821e-01 1.399767e-01 1.216866e-01 1.209195e-02 2.206175e-02 1.748326e-02 5.989064e-02 4.988526e-02 1.449920e-01 2.891431e-07
 0.000000e+00 8.258519e-02 6.487077e-02 9.135562e-03 3.872820e-01 3.918211e-02 1.509606e-02 4.735410e-02 4.650892e-02 6.359228e-02 2.443867e-01 6.211867e-06
 0.000000e+00 4.398075e-02 3.466436e-02 3.468495e-03 1.473392e-01 2.343965e-01 3.448687e-03 8.347363e-03 3.162511e-02 3.419634e-02 4.585329e-01 3.167582e-07
 0.000000e+00 6.578462e-02 1.805919e-01 6.699787e-03 6.008085e-02 3.553460e-03 4.493551e-01 2.667943e-02 1.778622e-02 3.609931e-02 1.533623e-01 6.950284e-06
 0.000000e+00 6.643833e-02 1.841429e-01 2.744472e-03 1.027286e-01 4.712900e-03 1.384761e-02 4.423674e-01 3.314383e-02 2.660688e-02 1.232671e-01 5.585202e-09
 0.000000e+00 9.017634e-02 9.352928e-02 1.317613e-02 1.233533e-01 2.389912e-02 1.186127e-02 4.197638e-02 2.906506e-01 6.861899e-02 2.427539e-01 4.713570e-06
 0.000000e+00 1.385828e-01 5.705393e-02 6.932653e-03 1.123770e-01 1.650217e-02 1.618057e-02 2.330297e-02 4.309024e-02 1.873032e-01 3.985573e-01 1.171135e-04
 0.000000e+00 1.090213e-01 5.088346e-02 4.996961e-03 1.086279e-01 5.429396e-02 1.644012e-02 2.616525e-02 3.731937e-02 9.643857e-02 4.957885e-01 2.458960e-05
 0.000000e+00 0.000000e+00 0.000000e+00 0.000000e+00 0.000000e+00 0.000000e+00 0.000000e+00 0.000000e+00 0.000000e+00 0.000000e+00 0.000000e+00 0.000000e+00
<ENDHMM>
